<?xml version="1.0"?>
<opencv_storage>
<opencv_ml_ann_mlp>
  <format>3</format>
  <layer_sizes>
    400 128 128 128 54</layer_sizes>
  <activation_function>SIGMOID_SYM</activation_function>
  <f_param1>1.</f_param1>
  <f_param2>1.</f_param2>
  <min_val>-9.4999999999999996e-01</min_val>
  <max_val>9.4999999999999996e-01</max_val>
  <min_val1>-9.7999999999999998e-01</min_val1>
  <max_val1>9.7999999999999998e-01</max_val1>
  <training_params>
    <train_method>BACKPROP</train_method>
    <dw_scale>1.0000000000000000e-03</dw_scale>
    <moment_scale>0.</moment_scale>
    <term_criteria>
      <epsilon>1.1920928955078125e-07</epsilon>
      <iterations>10000</iterations></term_criteria></training_params>
  <input_scale>
    1. 0. 1. 0. 1. 0. 1. 0. 1. 0. 1. 0. 1. 0. 1. 0. 1. 0.
    8.0191654974612392e-01 -3.0443128277399149e-02
    1.2893560211604346e-01 -3.0443128277399149e-02
    1.3419827975343299e-01 -3.0443128277399152e-02
    2.0549111587244426e+00 -3.0443128277399152e-02 1. 0. 1. 0. 1. 0. 1.
    0. 1. 0. 1. 0. 1. 0. 1. 0. 1. 0. 1. 0. 1. 0. 1. 0. 1. 0. 1. 0. 1. 0.
    1. 0. 1. 0. 1. 0. 1. 0. 1. 0. 1. 0. 1. 0. 1. 0.
    1.9454780200941468e-01 -3.0443128277399149e-02 1. 0. 1. 0. 1. 0. 1.
    0. 1. 0. 1. 0. 1. 0. 1. 0. 1. 0. 1. 0. 1. 0. 1. 0. 1. 0. 1. 0. 1. 0.
    1. 0. 2.2215255769993977e-01 -3.0443128277399156e-02 1. 0.
    2.9627205770321924e-01 -4.1423222882579727e-02
    1.3765974506321202e-01 -4.2827476241888186e-02 1. 0. 1. 0. 1. 0. 1.
    0. 1. 0. 1. 0. 1. 0. 1. 0. 6.7099139876716496e-01
    -3.0443128277399152e-02 2.9889616854173715e+00
    -3.0443128277399156e-02 1. 0. 1. 0. 1. 0. 1. 0. 1. 0.
    1.3699407724829618e+00 -3.0443128277399152e-02
    1.7213915465754492e-01 -3.0443128277399149e-02 1. 0. 1. 0.
    2.3484698956850775e-01 -3.0443128277399152e-02 1. 0. 1. 0. 1. 0. 1.
    0. 1. 0. 1. 0. 1. 0. 1. 0. 1.6677680088508279e-01
    -3.7061511307796176e-02 2.9889616854173715e+00
    -3.0443128277399156e-02 1. 0. 1. 0. 1. 0. 1. 0.
    1.2420427307932172e-01 -4.3011479751542889e-02
    1.3699407724829618e+00 -3.0443128277399152e-02 1. 0. 1. 0. 1. 0. 1.
    0. 1. 0. 1. 0. 1. 0. 1. 0. 1. 0. 1. 0. 1. 0. 1.2893560211604346e-01
    -3.0443128277399149e-02 8.6522575104187072e-01
    -3.0443128277399156e-02 1. 0. 1. 0. 2.0047913743653098e-01
    -3.0443128277399149e-02 1. 0. 9.2473918148920753e-02
    -4.3068871137876982e-02 1.7304515020837414e+00
    -3.0443128277399156e-02 1. 0. 1. 0. 1. 0. 2.0170907079503730e-01
    -3.0443128277399152e-02 3.8230905278594285e-01
    -3.0443128277399156e-02 1. 0. 1. 0. 1. 0. 1. 0. 1. 0.
    1.3206427482374383e-01 -5.5515908120351579e-02
    3.1538704381001148e-02 -2.2012847557776541e-01
    2.1441935817227024e-02 -2.6975146476728112e-01
    1.8672863620113295e-02 -3.4817974776096439e-01
    1.3868623655710163e-02 -5.3747337324976741e-01
    1.1063937114679749e-02 -6.6287325457635915e-01
    1.0889749358380305e-02 -6.8834307356347058e-01
    1.0839474958427086e-02 -7.0419451991492554e-01
    1.1065619702894462e-02 -7.5974700610122892e-01
    1.0674180659381931e-02 -7.5902319638755011e-01
    1.0563669032174495e-02 -7.8756065104872774e-01
    1.0551188748239113e-02 -8.0425459271531496e-01
    1.0755205699968049e-02 -7.3465025897439162e-01
    1.0775755021046005e-02 -7.1033178445678546e-01
    1.2373892170583899e-02 -6.3177885376883092e-01
    4.3836205381293500e-02 -2.1382326847097610e-01 1. 0. 1. 0. 1. 0. 1.
    0. 5.0564737854815564e-02 -1.2435179976147236e-01
    1.6264913682687173e-02 -3.0078042228761875e-01
    1.3679687728224772e-02 -3.7198617518750471e-01
    9.7302404923115711e-03 -6.8031499056938805e-01
    8.3391379523139308e-03 -1.0351881554193256e+00
    8.0640757370035020e-03 -1.1089149481530909e+00
    8.0494561545211580e-03 -1.1273636004414036e+00
    8.0705624395835656e-03 -1.0430454678861796e+00
    8.2350187422332733e-03 -9.7929622879861467e-01
    8.0674050695763201e-03 -9.4177243421942014e-01
    8.1810054857255742e-03 -1.0210879596845837e+00
    8.2227748347969299e-03 -1.1533812168275162e+00
    8.1053877186672146e-03 -1.2014060846221910e+00
    8.0332684146966933e-03 -1.1396455742201423e+00
    9.0583540710429122e-03 -9.6206430126380205e-01
    2.3757418513951335e-02 -3.2098912125516471e-01 1. 0. 1. 0. 1. 0. 1.
    0. 5.4516977265747862e-02 -1.1822107477442731e-01
    1.6196320950820148e-02 -3.3269942619809723e-01
    1.0145396366749935e-02 -6.6572587936929106e-01
    8.6558452348565879e-03 -1.1322887474489205e+00
    8.9315500714601086e-03 -1.4540480816799357e+00
    9.9567541057731905e-03 -1.8141482557221691e+00
    9.6913955513908794e-03 -1.6221601450148444e+00
    8.9323049722127984e-03 -1.2360077005299459e+00
    8.5892779307313889e-03 -1.0157616456601972e+00
    8.6737000222882697e-03 -1.0399605702649148e+00
    8.7637666527491474e-03 -1.1829786645410940e+00
    1.0203390324600017e-02 -1.8681746353488258e+00
    1.0732708745279923e-02 -2.0525709213750893e+00
    9.8913363799965192e-03 -1.6475577710499574e+00
    8.9062229080148908e-03 -1.0356452871536648e+00
    2.0083978326870599e-02 -3.1487214910238237e-01 1. 0. 1. 0. 1. 0. 1.
    0. 5.3524145993672653e-02 -1.3529714681733920e-01
    1.2396203674335702e-02 -4.8418653314646037e-01
    8.8035228797861131e-03 -9.0581729304940006e-01
    9.2152790875150940e-03 -1.5946272521020910e+00
    9.7477184024472811e-03 -1.8824288341555693e+00
    9.4182486949507069e-03 -1.7302369324701665e+00
    8.9736286131567016e-03 -1.5246776637830015e+00
    8.8302054571772585e-03 -1.3368522256358166e+00
    8.4819193807201057e-03 -1.2050372814995842e+00
    8.6549535680061698e-03 -1.2670050638971402e+00
    9.6022177240758962e-03 -1.6220901928088691e+00
    9.2411281800236847e-03 -1.6890899861046624e+00
    9.5468902870398421e-03 -1.7833060673396701e+00
    9.1459734511132301e-03 -1.4101736102586806e+00
    9.1557625745256558e-03 -7.6236983037216954e-01
    1.9559190304099767e-02 -2.8436889458793940e-01 1. 0. 1. 0. 1. 0. 1.
    0. 8.5876738616959353e-02 -1.3215475887165412e-01
    1.0507378071967994e-02 -6.2990758636071087e-01
    8.4390921328433254e-03 -1.2514782934296798e+00
    9.1218142324581229e-03 -1.6548237936322432e+00
    9.5601745291012865e-03 -1.7916386708477512e+00
    9.4510283579873951e-03 -1.6417311353042436e+00
    8.8671130630511262e-03 -1.3591149650290344e+00
    8.8100397864117642e-03 -1.3256662645275703e+00
    8.8884069566906154e-03 -1.3640165775750301e+00
    8.4960213123438464e-03 -1.2642630380815667e+00
    9.2678387999334446e-03 -1.5429321148766975e+00
    8.8001510541895929e-03 -1.4434610732394744e+00
    8.4951848303022222e-03 -1.2526071373161827e+00
    8.2927144337153584e-03 -9.9341344008406662e-01
    1.0051135498430995e-02 -6.2638118029805379e-01
    2.3476212359857532e-02 -2.2928434071460860e-01 1. 0. 1. 0. 1. 0. 1.
    0. 4.0599559811383593e-02 -1.6198472521041843e-01
    9.7502226343391795e-03 -8.9466417855590596e-01
    9.1940999210566986e-03 -1.5894725891300889e+00
    1.0421405992195643e-02 -2.0811933744414408e+00
    1.0726224130172947e-02 -2.1830746294714678e+00
    8.5647968333125140e-03 -1.2693901247387354e+00
    8.4669199581045643e-03 -8.6587584130812478e-01
    8.7046833159712886e-03 -8.0555396175746896e-01
    8.6126275453333578e-03 -8.1666848302083195e-01
    8.7889235875091773e-03 -9.2977859874415381e-01
    8.6207180202331722e-03 -1.3264890389244344e+00
    8.3153737800001799e-03 -1.2855644858081945e+00
    8.0801876359519725e-03 -1.1068211097106140e+00
    8.5758087596562813e-03 -8.9990408030726521e-01
    1.4200947654722330e-02 -4.8200383164736715e-01
    2.5579210128486716e-02 -1.7772814148533733e-01 1. 0. 1. 0. 1. 0. 1.
    0. 3.6498979327073452e-02 -2.0682754952008292e-01
    9.6576209707884639e-03 -1.1966776029387265e+00
    1.1242766056188581e-02 -2.3406293832441865e+00
    1.6178146213224116e-02 -3.7834692086726309e+00
    1.2399700171956317e-02 -2.7286803160814799e+00
    9.8564946836272819e-03 -1.8514877680155868e+00
    9.2580944843285717e-03 -1.4927905848106129e+00
    9.1528277425684396e-03 -1.3358043599848497e+00
    9.1702420253074474e-03 -1.4068509821195743e+00
    9.6716895132047207e-03 -1.7283936028861582e+00
    9.3546415176103508e-03 -1.7385947728683193e+00
    9.2527454662357355e-03 -1.6899282858388254e+00
    8.8468543159686656e-03 -1.2528784017766441e+00
    1.2163317246566604e-02 -5.8791619157895347e-01
    1.8595003132242372e-02 -2.4331905950449001e-01
    2.3681000730081062e-02 -1.9063205587715257e-01 1. 0. 1. 0. 1. 0. 1.
    0. 4.6447104879748256e-02 -1.8570240636180829e-01
    1.2245444461982787e-02 -7.8297145122427902e-01
    1.0619433575413595e-02 -1.0990327125843780e+00
    1.1209330926208055e-02 -1.3507036185878369e+00
    1.1202561217282983e-02 -1.3862962051550334e+00
    1.0900725432135494e-02 -1.3250942021832486e+00
    1.0470352198555266e-02 -1.2419679713891847e+00
    1.0271412150024369e-02 -1.0735242493132413e+00
    1.0179342167369239e-02 -9.9716081846203330e-01
    1.0284164397498147e-02 -1.0361676525457069e+00
    1.0383413705055300e-02 -1.0094697118423068e+00
    1.0627752526190755e-02 -7.8261588741476917e-01
    1.2991436564587037e-02 -5.8214867828073114e-01
    2.4871936109068578e-02 -2.6023414632636571e-01
    2.8533961466850995e-02 -1.9495564968879026e-01
    3.4603805312054599e-02 -1.5328204130821221e-01 1. 0. 1. 0. 1. 0. 1.
    0. 1. 0. 2.4560381295415521e-02 -2.2556890932335791e-01
    1.7066896833967858e-02 -2.7365504858687162e-01
    1.7477225739209859e-02 -2.7374513944858703e-01
    1.7483455755727267e-02 -2.7112307129344471e-01
    1.9635007082735426e-02 -2.4180147611146405e-01
    2.2163151018777059e-02 -2.2005135960587630e-01
    1.8095863779879057e-02 -2.4650587771257471e-01
    1.5439598130048400e-02 -2.7997137942487765e-01
    1.5749000131856782e-02 -2.7693450139267789e-01
    1.7045712165697641e-02 -2.4992486309613160e-01
    1.9390796629062332e-02 -2.3378478046946355e-01
    2.9867960933698270e-02 -1.5011415921121687e-01
    3.1244606190389872e-02 -1.4025356556575008e-01
    8.0590778537335830e-02 -6.4696486103583487e-02
    5.9988425942424387e-02 -7.3430276940634295e-02 1. 0. 1. 0. 1. 0. 1.
    0. 6.8497038624148088e-01 -3.0443128277399152e-02
    2.7321690240497236e-02 -2.5085359298589871e-01
    2.0025331226626784e-02 -2.8250550608230157e-01
    2.0323278813196854e-02 -2.7724339514336044e-01
    2.4036487401285316e-02 -2.3827280936866721e-01
    2.7751706854838333e-02 -2.0063456215053491e-01
    2.8737460552271395e-02 -1.9240794190136523e-01
    3.5692459533239761e-02 -1.5427074176033628e-01
    3.5577706535402522e-02 -1.6981766406481480e-01
    2.6790484891229628e-02 -2.0209451889708127e-01
    2.6896045629555176e-02 -2.0299043326528171e-01
    3.3995235405068450e-02 -1.6125702868533859e-01
    3.7750536244969317e-02 -1.4240341172407869e-01
    7.4467708809619948e-02 -8.0190690134803705e-02
    1.1492065243653704e-01 -5.0756621492803855e-02
    1.1299549130872090e-01 -5.2417352912656638e-02 1. 0. 1. 0. 1. 0. 1.
    0. 1.0274555793622213e+00 -3.0443128277399152e-02
    1.7035532922067920e-01 -3.0443128277399152e-02
    1.2601306326125247e-01 -4.9238437681711614e-02
    2.0189067339908323e-01 -4.4864594088685157e-02
    1.7213915465754492e-01 -3.0443128277399149e-02
    3.8011583565992541e-01 -4.2235092851102822e-02
    9.9885081798778017e-02 -4.2913590698734259e-02 1. 0. 1. 0. 1. 0.
    1.2486180362472038e-01 -3.8730281679890115e-02
    6.0886256554798301e-01 -3.0443128277399152e-02 1. 0.
    7.4724042135434288e-01 -3.0443128277399156e-02
    1.2956460115298554e-01 -3.6230101433520033e-02
    2.0549111587244426e+00 -3.0443128277399152e-02 1. 0. 1. 0. 1. 0. 1.
    0. 1. 0. 1. 0. 3.2878578539591086e+00 -3.0443128277399152e-02
    5.1372778968111066e-01 -3.0443128277399152e-02
    1.1337440875721063e+00 -3.0443128277399152e-02
    6.8497038624148088e-01 -3.0443128277399152e-02
    3.2878578539591086e+00 -3.0443128277399152e-02
    2.5888644519363058e-01 -3.0443128277399152e-02
    1.2893560211604346e-01 -3.0443128277399149e-02
    2.3484698956850774e+00 -3.0443128277399149e-02
    1.7966436360432286e-01 -3.0443128277399152e-02
    8.6522575104187072e-01 -3.0443128277399156e-02
    1.3586189479169869e-01 -3.0443128277399149e-02 1. 0. 1. 0. 1. 0. 1.
    0. 1. 0. 1. 0. 1. 0. 1. 0. 1. 0. 3.2878578539591086e+00
    -3.0443128277399152e-02 1.4548043601588975e-01
    -3.0443128277399152e-02 1.6831990572598393e-01
    -4.2547531725179270e-02 4.1098223174488853e+00
    -3.0443128277399152e-02 1. 0. 1.4743757192641740e-01
    -3.0443128277399149e-02 5.1372778968111066e-01
    -3.0443128277399152e-02 1. 0. 2.4354502621919319e-01
    -3.0443128277399149e-02 3.6130306087462732e-01
    -3.0443128277399152e-02 1. 0. 1. 0. 1. 0. 6.8497038624148088e-01
    -3.0443128277399152e-02 1. 0. 1. 0. 1. 0. 1. 0. 1. 0. 1. 0. 1. 0.
    5.1372778968111066e-01 -3.0443128277399152e-02
    9.9632056180579032e-01 -3.0443128277399149e-02
    5.8711747392126934e-01 -3.0443128277399149e-02 1. 0. 1. 0.
    9.3938795827403099e-01 -3.0443128277399152e-02
    3.6342885283926868e-01 -4.3073049225394809e-02
    1.3719716879705487e-01 -3.7475152588084433e-02
    1.5256002776276714e-01 -4.1106451924967813e-02
    1.6377366811373470e-01 -3.8365498178495258e-02 1. 0.
    6.0886256554798301e-01 -3.0443128277399152e-02
    6.8497038624148088e-01 -3.0443128277399152e-02 1. 0. 1. 0.</input_scale>
  <output_scale>
    5.2631578947368418e-01 4.9999999999999994e-01 5.2631578947368418e-01
    4.9999999999999994e-01 5.2631578947368418e-01 4.9999999999999994e-01
    5.2631578947368418e-01 4.9999999999999994e-01 5.2631578947368418e-01
    4.9999999999999994e-01 5.2631578947368418e-01 4.9999999999999994e-01
    5.2631578947368418e-01 4.9999999999999994e-01 5.2631578947368418e-01
    4.9999999999999994e-01 5.2631578947368418e-01 4.9999999999999994e-01
    5.2631578947368418e-01 4.9999999999999994e-01 5.2631578947368418e-01
    4.9999999999999994e-01 5.2631578947368418e-01 4.9999999999999994e-01
    5.2631578947368418e-01 4.9999999999999994e-01 5.2631578947368418e-01
    4.9999999999999994e-01 5.2631578947368418e-01 4.9999999999999994e-01
    5.2631578947368418e-01 4.9999999999999994e-01 5.2631578947368418e-01
    4.9999999999999994e-01 5.2631578947368418e-01 4.9999999999999994e-01
    5.2631578947368418e-01 4.9999999999999994e-01 5.2631578947368418e-01
    4.9999999999999994e-01 5.2631578947368418e-01 4.9999999999999994e-01
    5.2631578947368418e-01 4.9999999999999994e-01 5.2631578947368418e-01
    4.9999999999999994e-01 5.2631578947368418e-01 4.9999999999999994e-01
    5.2631578947368418e-01 4.9999999999999994e-01 5.2631578947368418e-01
    4.9999999999999994e-01 5.2631578947368418e-01 4.9999999999999994e-01
    5.2631578947368418e-01 4.9999999999999994e-01 5.2631578947368418e-01
    4.9999999999999994e-01 5.2631578947368418e-01 4.9999999999999994e-01
    5.2631578947368418e-01 4.9999999999999994e-01 5.2631578947368418e-01
    4.9999999999999994e-01 5.2631578947368418e-01 4.9999999999999994e-01
    5.2631578947368418e-01 4.9999999999999994e-01 5.2631578947368418e-01
    4.9999999999999994e-01 5.2631578947368418e-01 4.9999999999999994e-01
    5.2631578947368418e-01 4.9999999999999994e-01 5.2631578947368418e-01
    4.9999999999999994e-01 5.2631578947368418e-01 4.9999999999999994e-01
    5.2631578947368418e-01 4.9999999999999994e-01 5.2631578947368418e-01
    4.9999999999999994e-01 5.2631578947368418e-01 4.9999999999999994e-01
    5.2631578947368418e-01 4.9999999999999994e-01 5.2631578947368418e-01
    4.9999999999999994e-01 5.2631578947368418e-01 4.9999999999999994e-01
    5.2631578947368418e-01 4.9999999999999994e-01 5.2631578947368418e-01
    4.9999999999999994e-01 5.2631578947368418e-01 4.9999999999999994e-01
    5.2631578947368418e-01 4.9999999999999994e-01 5.2631578947368418e-01
    4.9999999999999994e-01 5.2631578947368418e-01 4.9999999999999994e-01
    5.2631578947368418e-01 4.9999999999999994e-01 5.2631578947368418e-01
    4.9999999999999994e-01 5.2631578947368418e-01 4.9999999999999994e-01</output_scale>
  <inv_output_scale>
    1.8999999999999999e+00 -9.4999999999999996e-01
    1.8999999999999999e+00 -9.4999999999999996e-01
    1.8999999999999999e+00 -9.4999999999999996e-01
    1.8999999999999999e+00 -9.4999999999999996e-01
    1.8999999999999999e+00 -9.4999999999999996e-01
    1.8999999999999999e+00 -9.4999999999999996e-01
    1.8999999999999999e+00 -9.4999999999999996e-01
    1.8999999999999999e+00 -9.4999999999999996e-01
    1.8999999999999999e+00 -9.4999999999999996e-01
    1.8999999999999999e+00 -9.4999999999999996e-01
    1.8999999999999999e+00 -9.4999999999999996e-01
    1.8999999999999999e+00 -9.4999999999999996e-01
    1.8999999999999999e+00 -9.4999999999999996e-01
    1.8999999999999999e+00 -9.4999999999999996e-01
    1.8999999999999999e+00 -9.4999999999999996e-01
    1.8999999999999999e+00 -9.4999999999999996e-01
    1.8999999999999999e+00 -9.4999999999999996e-01
    1.8999999999999999e+00 -9.4999999999999996e-01
    1.8999999999999999e+00 -9.4999999999999996e-01
    1.8999999999999999e+00 -9.4999999999999996e-01
    1.8999999999999999e+00 -9.4999999999999996e-01
    1.8999999999999999e+00 -9.4999999999999996e-01
    1.8999999999999999e+00 -9.4999999999999996e-01
    1.8999999999999999e+00 -9.4999999999999996e-01
    1.8999999999999999e+00 -9.4999999999999996e-01
    1.8999999999999999e+00 -9.4999999999999996e-01
    1.8999999999999999e+00 -9.4999999999999996e-01
    1.8999999999999999e+00 -9.4999999999999996e-01
    1.8999999999999999e+00 -9.4999999999999996e-01
    1.8999999999999999e+00 -9.4999999999999996e-01
    1.8999999999999999e+00 -9.4999999999999996e-01
    1.8999999999999999e+00 -9.4999999999999996e-01
    1.8999999999999999e+00 -9.4999999999999996e-01
    1.8999999999999999e+00 -9.4999999999999996e-01
    1.8999999999999999e+00 -9.4999999999999996e-01
    1.8999999999999999e+00 -9.4999999999999996e-01
    1.8999999999999999e+00 -9.4999999999999996e-01
    1.8999999999999999e+00 -9.4999999999999996e-01
    1.8999999999999999e+00 -9.4999999999999996e-01
    1.8999999999999999e+00 -9.4999999999999996e-01
    1.8999999999999999e+00 -9.4999999999999996e-01
    1.8999999999999999e+00 -9.4999999999999996e-01
    1.8999999999999999e+00 -9.4999999999999996e-01
    1.8999999999999999e+00 -9.4999999999999996e-01
    1.8999999999999999e+00 -9.4999999999999996e-01
    1.8999999999999999e+00 -9.4999999999999996e-01
    1.8999999999999999e+00 -9.4999999999999996e-01
    1.8999999999999999e+00 -9.4999999999999996e-01
    1.8999999999999999e+00 -9.4999999999999996e-01
    1.8999999999999999e+00 -9.4999999999999996e-01
    1.8999999999999999e+00 -9.4999999999999996e-01
    1.8999999999999999e+00 -9.4999999999999996e-01
    1.8999999999999999e+00 -9.4999999999999996e-01
    1.8999999999999999e+00 -9.4999999999999996e-01</inv_output_scale>
  <weights>
    <_>
      -4.7504818525171463e-03 4.6364992922844645e-03
      2.7542537410404945e-03 -1.9516291138343847e-03
      -3.6447626367252755e-03 -4.9141218502341301e-03
      2.7901884809901595e-03 3.6696261353952901e-03
      3.8670733869841271e-04 -8.7501657260362559e-04
      -5.7527328748933741e-04 -8.0093027910168484e-04
      4.4848168217932419e-03 -2.9119623136009704e-03
      1.3648782418380812e-03 2.9805089319823105e-03
      -3.8858060858721383e-03 4.4696300174219749e-03
      -3.7411222504942724e-03 -1.5931496246177784e-03
      -5.0427955945515981e-03 -1.0152260833195972e-03
      1.3933613991779841e-03 9.7617996917554961e-05
      4.5659766120500819e-03 4.4836089210705116e-03
      4.8425770091378032e-03 -1.1663763502066147e-05
      -1.2672153847557402e-03 1.1530164309751889e-03
      1.7584693977742572e-03 -4.6649664284057271e-03
      1.2204240281983927e-03 2.8426524291075127e-03
      4.3326648006373203e-03 -2.1617012261847543e-03
      -2.8468862180458174e-03 1.4781949914372046e-03
      2.5971600894916778e-03 4.8690198191932692e-03
      -8.6735889127128023e-04 3.2062986715813081e-03
      4.0750992714135379e-03 -1.0990695840938716e-03
      1.5875873159263256e-03 3.2791775048278443e-03
      3.2364114775280586e-03 -4.3801824459815796e-03
      -1.9592284952768724e-03 -3.7501803444191057e-03
      -4.5107975750995925e-03 1.7214445443147633e-03
      -3.0627005318881921e-03 -2.0716654271271278e-03
      -4.0082038096270721e-03 2.6807501418845128e-03
      4.4658699382462098e-03 9.2348766159510993e-04
      -5.7366655707357468e-04 1.3955754142215260e-03
      4.4031252028183263e-03 5.0929423737439607e-05
      4.7477076598143638e-04 -3.7274026897213229e-03
      -4.4252056879787432e-03 3.6436718947912110e-03
      1.9652183558160723e-03 8.1715707822718655e-04
      1.5822874368037261e-03 -2.0326271001401054e-03
      -4.7511734641685635e-04 1.1604433189821117e-03
      7.3352472070914172e-04 -8.5291078456934419e-04
      1.3197919385401820e-03 3.1037283917575913e-03
      -2.2866676662119979e-03 -3.3132555148769781e-03
      -3.5131081883761446e-03 1.6510887411813880e-03
      -4.0541520903864753e-03 5.7931753173473396e-05
      3.6713319086535494e-03 -4.7646539174258937e-03
      3.0706286843457499e-03 -2.0173707571901839e-03
      -9.5550632710570782e-04 -2.0008451568918331e-03
      1.0273752239770839e-03 2.5900584309522558e-03
      -1.7672144709736221e-03 3.5009837616244983e-03
      -2.0533544299919091e-03 -4.8611146485981162e-04
      -4.2949008927502287e-03 -1.6523555428948674e-03
      2.7278226343313288e-03 3.1947644382480157e-03
      3.9573207525977041e-03 1.0484087924832637e-03
      -4.7110088125094816e-03 2.7440578029373432e-03
      1.4014404539656156e-03 -2.8532751652266884e-03
      2.8374951794564104e-03 1.6256367757584603e-03
      -1.8668356266158248e-03 -3.7843945193384069e-03
      1.6559816135375627e-03 4.6597750402095081e-03
      5.0718550781108087e-03 8.1355034629072972e-04
      2.0736586429530822e-03 4.2543089950013201e-03
      1.1833493449919629e-03 -2.5401258174599585e-03
      4.1467655180005940e-03 -4.4510907107090927e-03
      4.4519181114399771e-03 1.0316668180998444e-04
      -4.5147670834093049e-03 2.2566076065802564e-03
      -3.3140690270726356e-04 4.9626723057281412e-03
      -1.0622306637482406e-03 -2.6026053213426669e-03
      1.8639635829209807e-03 3.9850724204985848e-03
      1.0145719327966148e-03 4.0674729190456121e-03
      -4.0474313795193210e-04 4.3705278290597522e-03
      3.4428752715829052e-03 -4.4221628059526443e-03
      -3.5469276986393335e-03 -3.5018149593240037e-03
      2.8305782888635857e-03 3.3338164125347935e-03
      -1.6331214878263802e-03 -9.6830105551926060e-04
      -3.3215140043306064e-03 -2.0590218116450429e-05
      7.7519062752116473e-04 2.5080184387206992e-04
      4.5473010003480559e-03 2.6758887981851685e-03
      -3.9293800001763794e-03 2.6497065858880294e-03
      4.4706450368379985e-03 2.0685010456676159e-03
      1.4870309569881210e-03 -2.7580022188937038e-03
      4.8195528632005002e-03 -1.7310209067796173e-03
      5.2299956228142987e-04 1.1225907368467701e-03
      4.8844187029828583e-03 3.2110493100491982e-03
      -7.4107298299868523e-04 -4.1630255060224044e-03
      -3.8574601625139685e-03 2.0967281555543186e-04
      2.4251109629452395e-04 1.3942533872951727e-03
      2.0557692285616317e-03 -4.1439984005027918e-03
      2.1259565786037053e-03 4.7323387221881426e-03
      1.8986704445691459e-03 -1.4208210333664723e-05
      -2.6352382561233186e-03 -1.6445855801522332e-03
      -2.5321897505684493e-04 -1.4705017990515456e-03
      4.1929252596484739e-03 -1.0726277508403314e-03
      -1.7509532041316178e-03 -2.7167957353603348e-03
      -1.8930679193891343e-03 2.6650225833698880e-03
      2.6823661523943665e-03 -3.9291859368543241e-03
      4.1841777433121131e-03 4.8344847069553772e-05
      4.2181802921332657e-03 -3.9088643426864423e-03
      -3.7678303078534756e-03 -4.7283651661255132e-04
      3.2497804735472213e-03 5.9962142434181304e-04
      2.6980520175429075e-03 -9.9136634447070482e-04
      -2.4409840939558398e-03 -4.3177016774520521e-03
      -4.4022129916365064e-03 2.5998105217135627e-03
      -4.1527875368194455e-03 3.8071373070234730e-03
      -5.5565432436328617e-04 -4.9581762016272443e-03
      4.4550138816524653e-03 7.2007297302219102e-04
      -1.1137609200129145e-03 -3.4010089450121936e-03
      -2.6994495073791023e-03 -3.0042994339569425e-04
      9.1297140370284757e-04 -4.5710000296931060e-03
      4.2166801245710024e-03 2.4242873639375552e-03
      1.0734768091675106e-03 2.7104283169528611e-03
      9.2969017408526524e-04 -3.7223326011824498e-03
      1.8951958414598071e-03 -1.9903841238104618e-04
      -1.0725371625015122e-03 -3.1009838999067961e-03
      -2.3156411805858568e-03 -6.2546375562284580e-04
      4.2732743876216575e-03 -4.1796643469937051e-03
      -2.0704904932272177e-03 4.3201388135994763e-03
      4.7910065606677761e-04 1.5855718777835078e-03
      -2.9635142135709209e-03 1.7839937340228894e-04
      2.7555542593891897e-03 -4.6446780077843280e-03
      -3.5378502586513112e-04 -4.1944012338735147e-03
      -1.4502839874525001e-03 1.0263898287064281e-03
      2.5234340325431342e-03 -1.5800794741001089e-03
      -2.1976452327879697e-03 4.3861912440938773e-03
      1.3381522632671236e-03 -5.5329205687965771e-04
      -1.4060337835211439e-03 -1.0346814408680465e-03
      -1.6930519015015721e-03 -2.7531025404678188e-03
      2.0142936500944456e-03 -6.5040872712925383e-04
      -4.3315707445391871e-03 -1.2845095475363590e-03
      -7.3077303169890337e-04 -1.8841123969367919e-03
      -9.5938266801997413e-04 -8.7431419912895785e-04
      -3.8498388478405059e-04 2.6151694164551114e-03
      7.9137934060812551e-04 -5.2256206139939454e-04
      -2.5130204740628553e-03 -3.8897047825695165e-03
      1.7735442505538697e-03 5.9612396970038146e-04
      -2.5754553218222515e-03 -3.5800148330968271e-03
      2.9256345466057913e-03 3.1249602921937917e-03
      2.0646863434494117e-03 -2.5134460523329864e-03
      3.7820964793552113e-03 3.2603114774870799e-03
      -3.7197399027292201e-03 -1.7480010768431129e-03
      -4.6727275343295387e-03 -1.5773279318605994e-03
      -3.3756221916730893e-03 -3.9752044895567217e-04
      4.3631245706940037e-03 -3.6746329130655990e-03
      -4.1871907825794608e-03 4.1017299798568937e-03
      -1.8816741545364215e-03 -4.4133723204379458e-03
      4.6402078156033031e-03 3.9849015481904278e-03
      2.2083477347416202e-03 3.6959716755651027e-03
      1.0574027829468086e-03 -1.4010443929635466e-03
      9.4101022069339503e-04 3.3850595043140512e-03
      4.6513587302899565e-03 -8.2499116172072195e-04
      1.2677911780126577e-03 2.7252571081428549e-04
      -7.1655103367374419e-04 -4.0852539789985312e-03
      -3.3606912326695328e-03 1.2009930942215978e-03
      -4.0422659624546357e-03 -1.8159956769802294e-03
      3.0963605208670290e-03 -2.3331800703778709e-03
      -7.9082085182717436e-04 -4.3939755297105216e-03
      3.8665204258563836e-03 -2.7870294137747908e-03
      1.5108620272143106e-03 2.5933994781982333e-03
      -4.4652535018231904e-03 -4.3178679972267313e-03
      -3.1421049004191079e-03 1.1757493972574817e-03
      5.4325962596524658e-04 4.2998762039206453e-03
      3.9143149552706936e-03 -4.7356756177569593e-03
      2.0043805623775448e-03 -2.3467853790644184e-03
      1.6825545552580754e-03 6.5146951894859894e-04
      -2.0169899967333025e-03 1.2322316029152909e-03
      -2.0666088943110911e-03 3.3575545638124976e-03
      -1.7874433460866130e-03 -1.8785874425281399e-03
      -4.1028296305276471e-03 4.9976191391737802e-03
      -3.5287813433934915e-03 -1.7730427906719731e-03
      1.8109613078656328e-03 -2.5852528779145624e-03
      4.5349437291636952e-03 1.1806795120714766e-03
      -1.0307502219733698e-03 -1.0140268160313446e-03
      -2.9096662929921752e-03 -4.0801563182962840e-03
      -1.4732957867799247e-03 -1.2091539005091106e-03
      -2.1545455672447688e-03 4.6190987846089918e-03
      3.6905636037668495e-03 1.9739614717703782e-03
      1.3286202488011669e-03 -5.8858730825328694e-04
      1.1662301007058506e-03 1.0064602874464942e-03
      -1.6840681504005093e-03 3.2728846149674305e-03
      3.7113457363606439e-03 -9.5078531140826072e-04
      -2.6082667751695819e-03 4.5580353750606060e-03
      -2.9754406947165059e-03 -3.4462228868594662e-03
      4.3122972709799543e-03 -9.9788760090223578e-04
      2.2265061739262931e-03 4.5553898195598982e-03
      -1.2947263937100402e-03 -4.5890771211303753e-03
      4.6076737042676907e-03 3.1111194962617828e-03
      1.1357585693447028e-03 1.7154789577577751e-03
      -4.9289970171461032e-03 -4.5086180176683694e-04
      -2.0311687872486329e-03 -3.1219157312759433e-03
      -3.3693176323910511e-03 4.5079878120071306e-03
      3.9933545078919518e-03 1.8797537610882246e-03
      -2.0687158759872229e-03 4.9033488933126583e-03
      -8.0580691702706239e-05 4.5643026652935443e-03
      -4.2605406053636231e-04 -5.5921168979412177e-04
      -2.2145325016333602e-03 -5.2935457263028672e-04
      1.2264070097389647e-03 -3.2809161375184984e-03
      2.3178889848683276e-04 -4.9554130561582244e-03
      -4.8353141138720414e-03 -1.8969633208577425e-03
      -1.9598700914506750e-03 7.0955775719856653e-04
      1.8904213613086234e-03 -4.1499321964780919e-03
      1.0840827993604456e-04 -4.9273361370407295e-03
      -4.6820210281002684e-03 1.2793129567115452e-03
      -1.3795388054083982e-03 -1.1238117597587827e-03
      1.3485292774794327e-03 2.5581426545368624e-03
      -1.2590022168012978e-03 -3.7828913789856784e-03
      1.8534278936847262e-03 -1.7716481739429167e-03
      -4.5514156074197131e-03 1.1654904531820333e-03
      -2.9153487086076317e-03 -2.8079889388884448e-03
      3.1388759188663152e-03 -1.7199542301917052e-03
      -1.6789796533576336e-04 7.3517447748663628e-04
      1.4350140860758072e-03 3.0030271259949702e-03
      4.8315834798142096e-03 -1.0303390180258583e-03
      7.9875685516174954e-04 5.8918624093946955e-04
      -3.5247181301616240e-04 -3.6252023280196602e-03
      -1.0588579976968000e-03 -1.2136005208047292e-03
      1.5856693677721973e-03 1.6661469442603122e-03
      -3.7843708519397796e-03 2.4134234259294133e-03
      -3.6729393062355595e-03 3.3437652352458463e-04
      2.3236152287704616e-03 -2.4377186422106468e-03
      3.1679762102827234e-03 2.0672798805373002e-03
      -2.6560972171551880e-03 -3.1524984194727531e-03
      4.9488839725986208e-03 1.9493888883710369e-03
      7.5115935126226498e-04 -4.6770644378411642e-03
      -4.5277292835359381e-03 -5.2907413260417178e-03
      2.0977569118409626e-03 3.1862049672035093e-03
      -1.2998814391705516e-03 -7.6781733501950255e-04
      -3.4145404640360095e-03 -5.5161585592948762e-05
      2.0009704129223009e-03 -8.7192454056671542e-06
      4.7022221014308826e-03 -1.0222281426494136e-03
      -8.6666926434917594e-04 4.7506737886906011e-03
      -1.2161604130775841e-03 4.4194098383442395e-03
      -1.1538063842970079e-03 2.6146230488509407e-04
      -2.6888824753036273e-03 1.2649345734817969e-03
      4.8820718837289312e-03 4.6076774853559275e-03
      7.9983217344642280e-04 1.1007168469906639e-03
      9.6811707149282349e-04 1.5848913701989808e-04
      5.4951101863798344e-04 -2.5810004398875625e-03
      2.9771552195752373e-03 4.1534073868580981e-03
      -6.8726114377656183e-04 -4.1387473963120109e-03
      -4.6487909457320412e-03 -4.1399810883643419e-03
      3.3863597461524461e-03 -2.0102252503674972e-03
      3.5575456166354268e-03 2.7121541852683450e-03
      -3.5906455244546520e-03 1.8380504880602631e-03
      -2.5019586579579428e-03 2.9947847085950454e-03
      -1.9119370524314379e-03 -1.3121330705159427e-03
      -6.1155534249437676e-08 -2.9122455809122692e-03
      1.8604063453999317e-03 2.4500963236623033e-03
      -1.7847326133383541e-03 8.0706127514168502e-04
      4.6843149256752146e-03 4.7688682092410966e-03
      -1.2603638890486645e-04 -3.5726375141917109e-03
      2.3741692784805683e-04 -4.2863729907770829e-03
      2.7083385933165428e-03 2.0079618679358924e-03
      3.0537624543385783e-03 2.2818051196213350e-03
      -8.5741117452580134e-04 -4.2105918339553489e-03
      -9.6713521352160279e-04 6.8300585400478213e-04
      3.1824954260912634e-03 -1.2853881545416706e-03
      -2.2900594425426732e-03 9.6605067470852807e-04
      4.4279581511793339e-03 -3.8135998199720590e-03
      3.7831353112030767e-03 -3.2179859267152480e-03
      1.9682565987870133e-03 3.9878153735082925e-03
      -1.4672833281481181e-03 -2.2477455010727950e-03
      -4.3499327389579139e-03 1.1061682141067640e-03
      4.1934673300703948e-03 2.9805720770430810e-03
      3.5845322366947212e-03 -4.8151827733576534e-03
      -3.7270827657324515e-03 -4.9446468866678585e-03
      -4.2175943607738768e-03 1.3309724583871374e-03
      -5.3517329284615987e-04 3.2454803801186248e-03
      -1.9332535557291025e-03 -2.5571150771518309e-03
      -3.8443555064699123e-03 -8.8689302336763566e-04
      3.2381555405578437e-03 -1.0627767905279082e-03
      4.4134115137629175e-03 -1.7115812563886317e-03
      -1.7672260009672083e-03 -4.8244319997085155e-04
      1.1843017881916179e-03 1.2199367039734781e-03
      2.8055973478248847e-03 5.7114993559759079e-04
      -4.7562155432701947e-03 2.6739117208060066e-03
      -9.4631221612103864e-04 2.0143657599976505e-03
      -4.8724843881188832e-03 -2.5259197886392582e-03
      3.3857155775758392e-03 -4.2125825842032841e-03
      -2.0862682472499029e-03 4.6959433601451920e-04
      -4.1127506027048601e-03 -3.2038190917594370e-03
      -4.1983223372640656e-03 -3.9601478935254921e-03
      -4.6396716551345739e-03 2.3545304727729814e-03
      1.7868498715515055e-03 -3.6363091618411333e-03
      -2.6262809791862064e-03 2.3046385661937723e-03
      1.0394857647669422e-03 -1.6317165201285972e-03
      1.2831651081657545e-03 -4.9406532955694922e-03
      -3.5102403191352139e-03 -1.8449650460375820e-03
      6.5228711760293692e-04 -2.2619913469903476e-03
      -1.6500285812236313e-03 -4.5168954362415359e-03
      -4.6381305523205971e-03 -2.8409217234591222e-03
      1.8794431313812728e-03 4.1548517702959436e-03
      -2.1571803783435014e-03 5.3286007104892322e-05
      -1.8475738025874021e-03 1.6951183509829185e-03
      3.7463380364742855e-03 -2.5702711091428031e-03
      -1.9025026727049917e-03 -2.5144508831057653e-03
      -8.6337275813856392e-04 -8.5082271681187959e-04
      -1.9608710257656586e-03 1.6282163527462908e-03
      1.2655582318364935e-03 1.5284051565581851e-03
      -4.5117584739116827e-03 -2.0818338318481983e-03
      -1.4238575486257450e-03 3.7692430430270791e-03
      2.0355712672849415e-03 -1.3763808956631207e-03
      3.7813553462827192e-03 1.3653351332296852e-03
      9.2669395822007124e-04 2.5833330177503144e-03
      -4.2238878575100065e-03 1.2575187324425868e-03
      -1.8480460644326323e-03 -1.9536043613924076e-03
      -2.5828850264366000e-04 3.3260810391466918e-03
      8.2140890926006322e-04 6.9572895278300717e-04
      2.2899115330264931e-03 -4.9272838443483605e-03
      -3.2190719581416337e-03 3.5010835108099762e-03
      -3.9238739760732487e-03 2.9371275814247346e-03
      2.8411208693349915e-03 2.6888383227878254e-03
      -4.8300807437209057e-03 -1.5753810421106510e-03
      -3.4809121101664437e-03 -2.4108836656742323e-03
      -2.3291912001795812e-03 -2.0237677009369190e-04
      7.0009610003829708e-04 -7.7837771351953655e-04
      5.0093688710003215e-03 -4.1014805448833791e-03
      -2.8007488764742877e-03 4.7072391257465896e-03
      4.1951013710345353e-03 1.8954589173318234e-03
      -4.2532853960271519e-03 4.3043814322938304e-03
      -4.6802008484344293e-03 -5.6165569996329229e-04
      -6.4917887071858148e-04 5.0963117842723503e-03
      5.9981222548966613e-04 -1.2940999226922652e-03
      -3.6022340142508854e-03 -2.6902641923728025e-03
      -3.4992491828980863e-03 -2.3320614886903029e-03
      2.6143785846417817e-03 -4.4857416130674134e-03
      -3.2274290656704317e-03 -3.1680589378867341e-03
      -2.2088958644158395e-03 -4.2765389849418704e-04
      4.8725033043956270e-03 -1.9840365088867780e-03
      -2.9412157394814609e-03 -7.5282876402337179e-04
      4.7619627940852114e-03 2.0338451244550672e-03
      -2.6461633433062905e-03 2.8753380196897388e-03
      2.3509320737951480e-03 -2.6821092599236414e-03
      1.9534439289932391e-03 4.2286471868408348e-03
      -7.8313693465835828e-05 -4.2822254891386503e-03
      -9.0057110067685354e-04 -3.6079692760730372e-03
      -6.5072644086551306e-04 -3.8467913271630449e-03
      3.4509729114840714e-03 -2.6499483786553220e-03
      -1.1620234334428264e-03 -1.2250176716095489e-04
      3.9057714331430359e-03 3.9163123151133381e-03
      9.3342670634508540e-04 -3.2683182435729622e-03
      -4.5523454898370183e-03 3.7854636412252224e-03
      -4.2061401154550376e-03 3.5790065787334502e-04
      1.3837549118463821e-03 2.7206525055322932e-03
      -4.2371054809176500e-03 -2.4028077096115937e-03
      -2.8616595322812947e-04 1.2718416657688278e-03
      -3.4462837986582554e-06 4.5852457174708856e-03
      -1.2319495715498673e-03 -3.7644901272002795e-03
      5.1062556609773723e-03 1.6442109679708449e-03
      -2.1976583923955556e-03 -2.9567122231746669e-03
      -2.7413084995516115e-03 4.6207107782085506e-03
      -1.8136472256319962e-04 2.4073334218566982e-03
      4.3538754754155742e-03 1.3780366476101586e-04
      -1.4059134865907978e-03 -4.7792501490935262e-03
      -2.0448182167298961e-03 5.8409187714060429e-06
      2.1397714474129534e-03 -1.7924027340017433e-03
      2.4720024337591255e-03 -4.6124727901100783e-03
      2.2824833184443517e-03 3.6383021272657981e-03
      1.9136694913562274e-03 2.0321542545985683e-03
      4.8707017931057346e-03 -2.2970548834829667e-03
      3.8065024127722873e-04 -3.5511618270891277e-05
      2.6392763176854905e-04 4.3495399171185672e-03
      -6.7851595168176408e-04 -1.7228359345020366e-03
      2.2035423192944517e-03 4.8417175865381658e-03
      -3.8128087476998079e-03 -3.5798361036875116e-03
      8.0672213758979172e-04 -8.0297223750777484e-04
      2.0397745886606873e-03 -1.5801045923963055e-03
      -2.9585221476941090e-03 -4.5857241024539778e-03
      2.5145347014983088e-03 -1.6870430755457804e-03
      -1.6164958198918308e-03 1.9930321183874253e-03
      3.2237364304736744e-05 -3.7448555600869357e-03
      4.0350008837761436e-04 2.8577889799833601e-03
      1.6521916886132124e-03 -2.8877103894122589e-03
      -5.7157570292560959e-04 3.1083679185584883e-03
      2.2917584498988064e-04 -4.1125466727139617e-03
      4.3834633926295120e-03 -1.0459494015738642e-03
      -2.0884693815664975e-03 -1.5607497094453679e-03
      1.5027137160237734e-03 1.7909367352553522e-03
      -4.4197718395860754e-03 5.0425408636508833e-03
      4.1966348196074222e-03 -4.1241112539608582e-03
      -1.0607486376892150e-03 3.9756987105175031e-03
      -1.1979014529486327e-03 1.6851326941363829e-03
      3.5665977449613889e-03 3.3049994273437354e-03
      4.2033573090279682e-04 -2.6292226597360619e-03
      7.6457046487834351e-04 -3.5703541178076161e-03
      -2.6746966890659157e-03 -3.3144423516812808e-03
      -2.7261332636861202e-03 3.4800149745839830e-03
      -2.7326770768337384e-03 -2.6202498235784973e-03
      2.9133197898261747e-03 2.4734757765912268e-03
      2.9611044116675273e-03 -3.9213164361527617e-03
      3.8232354738360111e-03 8.2829376943518442e-04
      -1.2885251859888842e-03 -4.6297774109361270e-03
      -9.8097927002343643e-04 3.6985963019017017e-03
      1.6632647561260106e-03 -2.2396802152562950e-03
      -2.6957046974012667e-03 -8.6502370751743074e-05
      4.6169440762029871e-03 -3.9907323842842887e-03
      1.1477960102043061e-03 1.8630594447985134e-03
      7.7558460945195749e-04 2.5514324688523898e-03
      4.5799092271642831e-03 -5.9330291375876254e-04
      -1.7210775187776158e-03 1.0709041493053857e-03
      2.9125345443912058e-03 1.6962494526180191e-04
      2.3929434964854151e-03 4.0538439381215688e-03
      -2.0464049901389586e-03 2.7754904674511063e-03
      -1.5838867597139218e-03 -1.3146328399370002e-03
      -3.5952852858363635e-04 4.6140136698771790e-03
      3.1060795872272242e-03 -3.5326460087195537e-03
      -9.6364733709921669e-04 1.6892631453347209e-04
      4.4656424118988446e-03 -7.8101867707028923e-04
      1.5128889508812440e-03 3.1709628434421723e-04
      -1.5301959735617508e-04 -7.7727649698978269e-04
      4.8488258676411180e-03 3.9691051928259242e-03
      4.4505099806920198e-03 3.1673136256618818e-03
      4.6529996365507568e-04 3.1988441534644258e-03
      -3.0264514256783575e-03 -4.9506766451896320e-03
      -1.5470886714076980e-03 -4.2949433162678859e-03
      -4.2785546482485559e-03 -2.5234031416751707e-03
      -2.8360385938618229e-03 -4.7827633985218655e-03
      -6.8833224799940394e-04 1.0346897755220956e-03
      3.5032236276565025e-03 1.0197584105979974e-03
      -3.3300483421589708e-03 1.3446030274725585e-03
      -4.3452826434374012e-03 1.1874256966973252e-03
      -1.5129999171159595e-03 2.1612404560178008e-03
      -6.4754867280137826e-04 -4.9614845741873404e-03
      -8.8558599832941126e-04 1.7965207096379990e-03
      -5.0372080037129694e-04 -2.7370184939853239e-03
      -2.3632619623500644e-03 2.0826262010968707e-03
      3.7921124058283625e-03 -2.3127645608596722e-03
      9.8918031561349377e-05 1.1489200052699682e-03
      -4.9302310666920470e-04 2.3131676020844862e-04
      -4.3910601743254174e-03 3.4029715903986912e-03
      8.2389224246973494e-04 -3.7282307593345838e-03
      4.7753432220754930e-03 -2.3369167891394435e-03
      -2.5772745208782187e-03 4.7749176891791114e-03
      6.7472140026777602e-05 -2.0667268532044481e-03
      -3.3516313432772429e-03 -9.2765195770373461e-04
      1.4289433722641754e-03 -1.8764338320310327e-03
      2.7114558196228628e-03 9.8406218441365886e-05
      -3.9061294470093132e-03 3.5528178869691407e-03
      -3.6487576825329836e-03 1.9125169282611669e-03
      2.1828007823659532e-03 4.9532912160084709e-03
      -8.0435347451105214e-04 -2.5119442652320589e-03
      -1.9935153717289987e-03 3.1259271820789749e-03
      8.9561052928064603e-04 -3.5584137304545795e-03
      3.5427185265510773e-03 -5.1646672069415457e-04
      -4.1264976931769046e-03 4.0061027230124174e-03
      -2.2185650045372057e-03 -2.9282312053399190e-03
      3.9030819395048204e-03 1.0333174216818049e-03
      -1.2217410619297009e-04 4.8082668077903765e-03
      3.9363534898552450e-03 -3.9810060560705922e-03
      3.0043431129310612e-04 4.2589267708205139e-03
      -7.0341615816458787e-04 -2.8336689351398758e-03
      -1.0672942969033612e-03 4.4313847496781278e-03
      4.5679706476290174e-03 1.9373008316292794e-03
      3.7336982795969772e-03 -3.8958847920204862e-03
      -2.6448440073392216e-03 -1.6576930972102989e-03
      1.5832621967861826e-03 7.2447786242952575e-04
      -2.3174121471529045e-03 -4.2246438718739733e-03
      4.0023911619594356e-03 -1.9789427570471216e-03
      2.3635504050952614e-03 2.6758611708710234e-03
      -3.6186301738505339e-04 1.1529095245346437e-03
      -1.1239730777846233e-03 -1.7797165478971139e-03
      -3.0894731546179956e-03 2.2784885262184117e-03
      3.1959220859763748e-03 -3.3723342673269625e-03
      -1.6807740742759614e-03 -1.7685657228712630e-03
      -3.6902652225075400e-03 -2.4546088167405181e-03
      -1.2763035221090414e-03 1.7775684249800121e-03
      -1.3985744191885921e-03 -8.1153475578630988e-04
      5.5945650448274784e-04 -6.0041518596914089e-04
      4.2597096655735706e-03 -3.5309672940929248e-03
      -1.0135239797203328e-03 -3.4028963497507313e-03
      2.5134623894048596e-03 2.3056260693386895e-05
      3.0592179826014454e-03 9.1567821490570116e-04
      5.3009337386200758e-04 -2.9171915038613142e-03
      1.9425440054330915e-03 -3.1888745490091312e-04
      -1.8295871505539124e-03 -1.8237427235406013e-03
      3.1177455229983641e-03 4.3828861543767760e-03
      1.9708966502344494e-03 4.0142734249921084e-04
      4.1394654910735290e-04 -2.4870332339959390e-03
      1.0636616675532670e-03 1.1168045995192690e-03
      2.7468721460588512e-03 -3.5453860916494560e-03
      -9.4822997112842407e-04 2.9626440509352286e-03
      -1.5420159016475189e-03 -4.3023125631533312e-03
      -4.0511134250283461e-03 4.1408658556660724e-03
      -1.6154628190914006e-03 1.6220430845573946e-03
      4.7195106431317940e-03 -1.9381839897281256e-03
      -2.2306625237919161e-03 2.9469571588500135e-03
      4.0291577624137044e-03 -2.5964175750428082e-03
      -1.4467658029160184e-03 -9.0089490570437929e-04
      -1.6391287845674207e-03 -5.9511188871983107e-04
      1.4240540850680378e-03 4.1674068638853003e-03
      -3.0827706723896850e-03 -1.6846516383502614e-03
      2.6964566031758026e-03 2.1511425914576242e-03
      -9.5607364812107316e-05 8.9216456761765067e-04
      -1.1306681363211898e-03 1.7770082720974640e-03
      3.2758290505927557e-03 1.4591146050265469e-03
      -4.3669644893759019e-03 -2.8878715606974097e-03
      -5.2065309505760062e-05 2.7717482132170973e-03
      5.6786793264008810e-04 1.4146684435907301e-03
      3.5235248050168506e-03 2.0769321819939023e-04
      4.4237921695763670e-03 2.1174947570321945e-03
      -3.5706229208473141e-03 -3.8643443712042249e-03
      1.4146235988825477e-04 -1.4349092717969752e-03
      -4.2456203845498124e-03 6.0278935332130229e-04
      -3.0467534983695554e-03 1.3162397426425114e-03
      -4.4576462673477507e-03 -3.1612811643069801e-03
      1.4409018976042087e-03 -3.6625345813277930e-03
      -6.5261172587623975e-04 -6.3637555644889706e-04
      -1.8156984283349352e-03 -4.5862982119588497e-03
      -3.3946006860218251e-03 -7.7079728950275948e-04
      -3.8419954744005997e-04 2.7947403652020210e-03
      -1.0393085682390119e-03 -3.2935583611804981e-03
      -4.4483844008078666e-03 -2.9329162762515891e-03
      -2.5146002176128640e-03 6.0619948477807638e-04
      7.9743206005847853e-04 1.4702190024578627e-03
      9.7444167800461788e-04 -7.9290175020914463e-04
      -3.3542549589328291e-03 -3.5719060584385354e-03
      -3.7593596743908829e-03 -1.6419360632619593e-04
      4.2358580289598557e-03 4.5817183588376846e-03
      -2.9790999141335052e-03 -1.6226148684665620e-03
      4.4361633053176478e-03 -4.7180792215195328e-03
      1.9876895870605429e-03 -2.9021387736748363e-03
      -1.6487720026549101e-03 -4.2206855762643757e-03
      -2.5814403808474850e-03 2.5784550912574416e-03
      -4.1628233479535717e-03 2.1171946525895094e-04
      -4.8646629656366102e-03 -3.3063262149322275e-03
      -4.6893617984937489e-03 1.6438411526177460e-03
      -3.2559747063458508e-03 -1.4720442594488915e-03
      -1.5313318529477338e-04 -1.9003328736932324e-03
      -4.3659398850083757e-03 -4.0473157065363842e-03
      -2.3098277276640557e-03 -2.7977552127051971e-03
      3.8158556247019338e-03 -4.0242070907316480e-03
      -4.5840591176506840e-03 2.1356719140748757e-03
      2.7315242867994912e-03 1.9871271955878059e-03
      1.6849968952217180e-03 3.5839812807020440e-03
      4.1149522092868993e-03 6.9985676141674758e-04
      1.5061882948111087e-04 2.0064256508953849e-03
      -3.5856056386509012e-03 -3.4325368911141923e-03
      -2.5611186637901954e-03 2.3180526191892317e-03
      -1.3293337121431034e-03 -4.0110880421476650e-03
      1.3810764907532902e-03 1.8125226737417809e-03
      2.3730712648988815e-03 1.9206737874920010e-03
      2.5024296392079713e-03 -2.4301264758357834e-04
      1.4733424630199406e-03 -1.3488806845355903e-03
      2.5580873481690605e-03 3.2558434478339492e-03
      -2.1322292932161092e-03 2.2163814789167920e-04
      -5.1242167502998242e-05 3.4018430433945483e-03
      -3.0254095234529773e-03 -2.8525039142072764e-03
      7.8677229668295493e-04 4.1748596807842289e-03
      3.0770805650796227e-03 -4.0638675663693981e-03
      3.6436495078457603e-03 -3.6919526764389184e-03
      -2.3752019621444049e-03 -4.5800009747026318e-03
      4.7486995268434485e-03 1.8986720109865677e-03
      -4.9050252681347606e-04 -3.3339901811359446e-03
      4.6431877307230038e-03 8.9100103040780593e-04
      3.8905197617684112e-03 3.8500424330165498e-03
      2.3728623105399402e-04 -2.0061183335050819e-03
      -3.8178928096882759e-03 5.0416335402264281e-03
      2.0855469069237819e-03 -4.2876389430706761e-03
      -2.4906925288759505e-03 3.8406480120404696e-03
      -3.4306930092897346e-03 -4.2647400683717184e-03
      -2.4841078410346618e-03 1.1869806021574567e-03
      -4.3609359457663609e-03 -3.2594096360827858e-03
      -3.6825091215550217e-03 -2.0073284832332295e-03
      2.9797364450277497e-03 2.4223293650464583e-03
      -3.9751941075433419e-03 -3.0476932700335248e-03
      -2.8059167046381259e-03 -7.2008076870195789e-04
      -2.9167018948118820e-03 5.8102249474248813e-04
      4.8729114580681639e-03 -4.1892417874389819e-03
      -1.7071289790605688e-03 1.1987954748554207e-03
      -1.9110055105781858e-03 3.3344786041073935e-03
      -3.0144761984224207e-03 -2.8460968597481154e-03
      -1.2801232902847307e-03 2.2914400082992589e-03
      7.7095071771269720e-05 2.0520232348167247e-03
      -5.2297945728293333e-04 2.0701165262756141e-03
      1.6499330550388274e-04 5.8554784359180162e-04
      -4.4775497243256836e-03 1.6155573424925357e-03
      3.8708876693112396e-03 3.7337076548179804e-03
      4.0634400101246144e-03 4.4563335548759462e-03
      -4.6322070425014617e-03 4.3844693262110252e-04
      4.7513049369060350e-03 -8.5559120295945897e-04
      -4.2581669091277712e-03 -2.2584172591741305e-03
      -5.1427503496200670e-03 2.6557370170477443e-03
      3.1767144729334070e-03 1.6328531181917848e-03
      3.6955031416582148e-03 2.6001348237222116e-03
      -1.7453172212678239e-03 5.1087439195557933e-03
      5.6097200251620715e-03 2.9620691087988622e-03
      2.3582400092421025e-03 -9.3740914910862047e-04
      -1.0047116224618766e-02 -3.5777154350720148e-03
      -7.6163029205524747e-03 -3.0079210811324820e-03
      -7.3881657314294911e-03 -1.7231380867289681e-03
      -3.6223743028507204e-03 -1.8129895626890281e-04
      2.9239826511156426e-03 4.6678301800302004e-03
      -5.9202445401788329e-03 1.2075206154614168e-03
      -5.9104598196750803e-03 -4.2060004053536253e-03
      -4.4443380996735879e-03 -3.6467552067858508e-03
      6.6581894391795247e-04 3.2339481116534026e-03
      3.8095824580246054e-03 1.7160809756504324e-03
      1.1614152369734247e-03 5.7561752099519357e-03
      5.2173243541166377e-03 -1.4564659970483897e-03
      -5.2150229861356234e-03 -1.0022702772427902e-04
      -4.9158891635507098e-04 -1.7785687492624597e-03
      -4.2138309071091664e-03 -7.4983586174670698e-03
      5.5335100070943955e-03 -1.6010437393801548e-04
      1.5477345940422728e-04 6.8270218874710228e-03
      -1.8034974092536054e-03 -6.6097205153077794e-03
      -3.3461082769986176e-03 -4.6256813009510362e-03
      3.0939016299809698e-03 -4.0719017493219744e-03
      3.1009880069398392e-03 -3.6015690829065351e-03
      3.5708135156551808e-03 -4.7307977338237450e-03
      6.0899209123516417e-03 -3.7708255836634073e-03
      -4.7155857075787191e-04 3.4190277680900003e-03
      -6.7341152355502388e-03 -5.5809702543553009e-03
      -6.8219351705410391e-03 -2.0222738919952249e-03
      -1.6311715902619567e-04 -3.5545993664336598e-03
      -4.2859671365611399e-03 -3.9482115218345592e-05
      -2.5871722803524335e-03 -1.1202962544602858e-03
      -6.4583682255351217e-03 -2.0019317832311334e-03
      4.5466206193296704e-03 -1.6524749736175642e-04
      -3.7658292742333861e-03 -8.3920304977485247e-03
      -2.2250662906319893e-03 -5.5967933155461448e-03
      -2.9405603888442715e-03 -4.0134410422132021e-03
      2.2138037639290258e-03 7.9270644139314925e-03
      5.9191551251558036e-04 1.1314211021022967e-03
      2.5310201011495038e-03 -3.7920559659733182e-03
      8.0617775984645479e-04 3.9479006653773165e-03
      5.2625525373331383e-03 -1.3736713294122986e-03
      -5.5347938825562422e-03 1.7128559981220495e-03
      -2.3461370702246827e-03 3.5740570373226014e-03
      6.1646782173441607e-04 -3.2436894376633761e-03
      7.5830802972373179e-03 -3.2526476341384914e-04
      8.1575457866073264e-04 -1.8347207891772643e-03
      -9.4726882616212003e-03 3.7590278893193003e-03
      -1.9668320479621138e-03 -5.4827938011011929e-03
      3.6738708592138453e-04 -3.8902829713547264e-03
      2.7005096224486701e-03 2.0001894476464189e-03
      3.3350375338786565e-03 5.2691571139878261e-03
      -9.0255007641313872e-03 1.3726202816889269e-03
      -4.1701104255511103e-03 5.1320261231625535e-03
      -1.7294210037834541e-03 -3.1999764368319137e-03
      2.8684709622899978e-03 -3.7143607002866852e-04
      1.7284200603260890e-03 3.3745736765406890e-03
      -2.3268409471339973e-04 1.0318402735231499e-03
      -6.1722312551395668e-03 9.1613128873869951e-03
      5.7766105274767677e-03 4.3220710320960107e-04
      -8.9852661640062205e-03 -5.1462543407585571e-03
      -9.3582829955952669e-04 2.7737664214431408e-03
      3.4833860353764381e-03 5.4990912423155051e-04
      -3.9703925080728945e-04 1.2093943513049343e-03
      3.2559655195394028e-03 5.4829850995391557e-03
      7.7686476703439427e-03 3.1124325165170544e-03
      -5.2158177831925709e-03 -6.1258611619326529e-03
      -3.4409389926139547e-03 3.5261351514995283e-03
      -8.3488796565600737e-03 2.1476762491928827e-03
      -1.2960425672225270e-03 -5.3404461297149779e-03
      -3.1227083457408536e-03 -4.1394344904681158e-03
      1.9829122090433198e-03 -5.2175630041396926e-04
      -1.0278236771113020e-02 4.6964087407094651e-03
      8.8628877776020414e-05 -5.0617360070606809e-03
      -8.6337518333112133e-04 -3.9029951389983439e-03
      2.5432821052701485e-03 -1.9394526753201574e-03
      5.9925224315122080e-03 4.7988394048834263e-03
      2.6073751370816185e-03 -3.0364556403510478e-03
      2.6160773726725834e-03 2.8048127163237003e-03
      -2.4778884721471843e-03 -4.9053923069489226e-03
      2.9623097791474976e-03 1.6691764531634530e-03
      1.9356190471333406e-03 -7.5227829507391536e-03
      2.9187830753536710e-04 1.9707265333125828e-03
      6.1357007040178223e-03 5.1643357935697975e-03
      4.3897465582456640e-03 -1.5291905628300095e-03
      -4.1430003401900029e-03 5.7033698949100016e-04
      -5.9097230245777309e-03 2.2064399528657279e-03
      -4.1808537370000374e-03 -4.0140657562422934e-03
      4.5562154565345269e-03 -4.6278092332940057e-03
      4.2764393896681909e-03 7.0601084428965324e-04
      3.3647593954786092e-03 -1.3782876719081333e-03
      -6.5883706766918784e-03 -1.8189580846291523e-03
      -4.1076976210074022e-03 -1.0866190506039570e-03
      2.2931016512531496e-03 3.5321395410393701e-03
      2.9188855891013494e-04 -5.1156931648990130e-03
      -2.7442198201087985e-04 -5.8983362369518068e-03
      -2.3115608699995293e-03 -6.2042040571667406e-03
      5.6359161989734639e-03 -4.4249837337467061e-03
      -3.4045901363449057e-03 -2.7605040767017938e-03
      -4.3979391553284992e-03 -7.1646284447659766e-04
      5.2453008740736406e-04 -2.3633478268005192e-04
      -7.8727736727816130e-04 7.0881188948281396e-03
      6.8214889806758624e-05 -3.3068816003390925e-03
      1.3887205220620333e-03 2.3062001277867230e-03
      -3.1500558219512750e-03 -1.8380889365967156e-03
      8.2153540753409169e-03 1.8900199737568318e-03
      -1.5024744513919912e-03 2.8672256900293888e-03
      -2.3262937446206040e-03 3.1188642751268096e-03
      -6.9899275761839538e-04 -1.7600438600996686e-03
      2.9898877080915356e-03 3.4820019752737825e-03
      -2.2901447029263266e-03 -3.0434496153597494e-03
      -9.3874004180534258e-03 2.0629238345258824e-03
      3.7200520261376040e-03 -7.2937840397425491e-04
      4.1478559639922096e-03 -7.8857292513416174e-04
      -2.7304423618204699e-03 -1.1268576923541033e-03
      4.6875605897142413e-03 3.3676611683146887e-03
      -5.2338712784603218e-03 6.8307065432422053e-03
      2.3853745771675624e-03 3.6879713119452643e-03
      4.7731639967178770e-03 2.0973331439464037e-03
      -4.9361696338721560e-04 -1.4465175821025008e-03
      2.4766677207790017e-03 1.7773282058156212e-03
      3.2840809354679926e-03 2.0497567240967043e-03
      -6.1851956452233332e-03 2.3476257887925889e-03
      5.3717861309141880e-04 -3.1294925655695518e-04
      -2.4098614813304592e-04 -4.9675280297220255e-04
      -1.0805761009931972e-04 5.7360372391791351e-03
      1.0063331208723803e-04 3.9529686191926705e-03
      7.0719646163815120e-04 -1.3933862012854422e-03
      6.0425603471922149e-03 1.2881597166994844e-03
      3.9254747242477650e-03 -3.7954209526180629e-03
      3.7723610688590488e-03 -5.7083669952389801e-03
      -9.6201231545281103e-03 5.6433668655388246e-04
      -7.3551531061747536e-03 -1.6428009035086605e-03
      -3.9512059091211501e-03 -2.5581800113572035e-03
      4.5297788065299929e-03 -1.2958997889807491e-03
      3.2242275518357950e-03 3.8667699249788404e-03
      -8.6836010028396686e-03 -7.5579468869105379e-04
      2.5735581365233799e-03 3.4597999913827519e-03
      -3.0452368672199293e-03 4.5095551527262259e-03
      3.7701264641645310e-03 -2.1434944478133555e-03
      2.8583864200888900e-03 5.7579338398684333e-03
      -2.4271159762246381e-03 1.5410893343833743e-03
      2.7213158590492382e-03 2.5162473510481525e-03
      -1.1115559518735908e-03 -3.4788454882343075e-03
      7.3923181984698293e-03 2.2440255798921338e-04
      1.5531366880934350e-03 -6.9324501693907633e-03
      5.6870743928089237e-03 3.4615782755387388e-03
      5.3732196320971206e-03 7.4588241024497962e-03
      -4.1605827415454443e-03 -1.4322180060104017e-03
      -9.3305500118938765e-03 -1.9118239165367809e-03
      -4.9204547667061260e-03 1.3795150444420538e-03
      -6.5661310801737316e-04 -4.5145486947069857e-03
      9.7116145705438567e-04 4.3703904465139396e-03
      1.1358724992874112e-02 -5.6271733813218119e-03
      3.9994100327744317e-03 4.1818773588634542e-03
      8.0694912084369643e-04 -9.3619461371874310e-03
      -3.5979633449134918e-04 -3.1369603223111815e-03
      9.3798220579631518e-04 -3.0887874006955730e-03
      -4.3054144827636368e-03 1.9425372005442583e-03
      1.8626923754969616e-03 1.1435886470122841e-03
      -6.1855340515953238e-03 -9.9587101412254575e-03
      -2.8818558399131972e-03 3.7701444241552006e-03
      -3.5452937151460935e-03 -2.2033347685063492e-03
      -2.1826483209704604e-03 -4.0791255842217034e-03
      1.8846649088342458e-03 -4.3729099354923324e-03
      -9.4579885804146955e-04 5.7058781844727680e-03
      6.4914418639929622e-04 9.0662247438392997e-04
      -1.2259902366858098e-03 5.9273889272879127e-04
      5.2050378038978162e-04 -1.0407169556898453e-03
      1.0142433555824677e-03 5.6344199498815873e-03
      -5.3639581342690866e-03 -3.9381284927675854e-03
      4.3770956179038445e-03 1.4660593605199564e-03
      1.0074464101341841e-04 1.5270259740568744e-03
      1.8184405003562026e-03 7.5136004041422380e-04
      -5.0815335358998757e-03 4.2817011334466753e-03
      -3.9387532432933773e-03 4.1278095336557304e-03
      -2.0524901372095511e-03 2.0205548679315781e-03
      4.5555119369396031e-03 -1.9070355507199981e-03
      -3.9940900018852372e-03 3.7370609861924137e-03
      2.7966653387730628e-03 4.1934984785510663e-03
      -1.6239760251351093e-03 3.3726797609870810e-03
      -4.5769686926457618e-03 1.1414681690679788e-05
      1.3209256475270992e-04 -1.4216490326432981e-03
      1.6093408052335323e-03 5.4316615790341157e-03
      3.6052369292482126e-03 3.5593234746401377e-04
      -1.6742579382518304e-03 -2.3041931106729144e-04
      -6.8573468583136568e-04 4.9574058022040799e-03
      3.1944808642765700e-03 2.6776420756110071e-03
      -2.4333763156597237e-03 1.6636810145322103e-03
      4.7912410151906403e-03 -1.3072439010599398e-03
      -3.9250499503817151e-03 -4.6467654509048584e-04
      2.5466927853752710e-03 2.7611715694595132e-03
      4.9231366713573272e-03 2.6269338839004204e-03
      9.8002393117638045e-03 -4.7682030369772567e-03
      -6.0022383683488766e-03 1.1582601863456329e-03
      -8.3657494398465641e-03 1.0305108941714651e-03
      -4.8463671337550885e-03 4.9590410710054255e-03
      -1.5970898746826315e-03 -1.4439231881376872e-03
      -4.5997300189268920e-03 5.3382946129893254e-05
      -1.3109200040916009e-03 2.0586749040565254e-04
      -2.9340325274343532e-03 -4.6070940440551518e-03
      2.3528500801708158e-03 -3.4875203657425921e-03
      1.8827042564449847e-04 4.7554504352664718e-03
      5.0202021529971667e-03 -3.6514863479549675e-04
      -2.3053626432927819e-03 7.8741761280157804e-03
      1.9744126281207707e-03 3.4850546477206250e-03
      5.9712694769943307e-03 7.0393145046529397e-03
      3.3639674213896834e-03 -1.9069350760067296e-03
      1.7813707482700885e-03 3.7719032112510791e-04
      -1.5323246709048903e-03 1.3886408695612065e-04
      7.6345575411790973e-04 -2.6203680405597831e-03
      9.4355356668846012e-04 9.7524991367496858e-03
      1.3761842326768759e-03 -5.7563914775096521e-03
      -7.9531457779491981e-03 -2.9396557754751505e-03
      7.8403619594124261e-04 2.4378818842761439e-03
      -6.1282187708443254e-03 1.3131068001804931e-03
      4.8808225750009504e-03 -3.6795923606004416e-03
      9.6324120945383649e-03 -3.1825547268079968e-03
      1.5523678792864347e-03 3.3021852014918046e-03
      2.7078544510738345e-03 -1.6269158229075269e-03
      -3.7047007102479854e-03 -1.4032481793324705e-03
      5.2524111248949989e-04 -1.1812976795588367e-03
      1.1151959862210428e-03 -1.4337180996114621e-03
      4.1382772360842278e-03 -4.5847569611675925e-04
      1.0648977976204538e-03 -4.8485081742735466e-03
      -3.5205677358456445e-03 -1.2910071842409702e-03
      2.8198801293731787e-03 2.0454645570736527e-04
      -5.5748356722873692e-03 -2.8350499341822707e-03
      -2.0383287099947100e-03 -2.9533807756700033e-03
      -3.2706448815098019e-03 6.0316470029854567e-03
      -4.5500798275185297e-03 -1.4064874081186609e-03
      -1.6577446668898331e-05 -3.8460989440186797e-03
      -4.4936529081799443e-03 -3.2944178131291582e-03
      2.6611438461299004e-03 3.7088452624483136e-03
      -5.0819780295892339e-03 1.0922259961421976e-04
      1.7244445772741483e-03 5.5103411478270503e-03
      -3.6500519401291868e-03 2.3399589446089584e-03
      4.9638072451188590e-03 1.9509688670140287e-03
      -5.7233934333797984e-04 4.3074083664583511e-03
      -6.8770619161158961e-03 1.7710637057125560e-04
      -5.2790117142566123e-03 -4.1137852033101240e-03
      5.8989573778512458e-03 -1.7825507193578837e-03
      -4.4814423641844165e-03 7.6151732514625613e-05
      1.6603414412707665e-03 4.9488101962908279e-03
      -6.2688111426007229e-03 1.8366556936972507e-03
      1.8244242812550408e-03 -3.5426913824291250e-03
      -3.0464275808168850e-03 1.5006631013389641e-03
      5.4606457471934123e-03 5.5099878683144291e-03
      8.4382008653328586e-04 3.8664613426237036e-03
      2.3653330199960828e-03 6.1619249262994178e-05
      -3.7360957809968786e-04 4.5630487225819675e-03
      -1.7265085746880390e-03 2.5489799033041839e-03
      -3.7292860071140251e-04 -8.9225083184959390e-04
      3.7790608821077639e-03 3.3555933568281569e-03
      -3.0404459666259240e-03 -3.5206015195083590e-03
      -2.6255915520501886e-03 8.4926156439457136e-04
      4.3190997718940555e-03 -3.6141603126770478e-03
      -2.9271605242722903e-03 3.8608018972620980e-03
      3.9246844944029712e-03 2.8874249442846010e-03
      1.2899504353435260e-03 -2.5679703377142959e-03
      -1.1068342911238315e-03 2.0022530513645860e-03
      -3.5341766014275293e-04 -4.0579227307018056e-05
      1.2039459572142140e-03 3.1450982983403653e-03
      1.0768437635394485e-03 -2.0398836705673999e-03
      -5.1069919308183867e-03 2.9155657283701946e-03
      -1.8319661180724828e-03 -4.3708590161495621e-03
      -1.5241670052877799e-03 3.5139339558222845e-03
      -3.1301199348685968e-03 4.5152007923004436e-03
      9.6108061554341833e-04 -1.8397109274984553e-03
      -3.2833402384456855e-03 3.3454014315092771e-03
      3.8168934268885766e-03 1.5946212145058960e-03
      -5.6790856728893891e-04 -2.5431673043507107e-03
      -5.3653419785090110e-04 -3.5250252921117794e-03
      1.3422477086877713e-04 3.2825902466434524e-03
      3.5366786346812153e-03 3.4484356135303299e-05
      -2.6509004901490601e-03 4.6868646006030463e-03
      -3.8384813710262700e-03 -3.2243732120584832e-03
      -4.0668205035507944e-03 3.1497623649241009e-03
      -1.6702738596594846e-03 -5.5715828233037618e-04
      -9.4235741683656017e-04 -2.7746867950030150e-03
      2.4487651165372966e-03 5.9688917825921508e-04
      -4.4093251716878301e-03 -2.7888448744439083e-03
      -2.0289390005115175e-03 -2.9704987582427375e-03
      -2.8149447451848632e-03 4.1938430836608309e-03
      4.7285685113974529e-03 -4.5876068450026522e-03
      -3.8903448493325921e-03 4.0247908336709980e-03
      2.0659637265337031e-03 -2.0240451733944077e-03
      -3.2230720981299590e-03 4.2654765702237543e-03
      2.1627816824548000e-03 -4.3493368749162450e-03
      2.1821295693890278e-03 -2.3199364349416663e-03
      2.5908744836831438e-03 -9.9350882012652392e-04
      -4.8546110826149019e-03 3.9434221376806067e-03
      1.0768306429628065e-03 1.3185155594232895e-03
      -3.3160218900997298e-03 -2.1162584163547373e-03
      2.9226908964422801e-03 -7.2586166032465580e-04
      -7.6805538955342686e-04 -1.2043168320544288e-03
      -2.8899350318765281e-03 8.3006871731180468e-04
      -2.9709828738371099e-03 -3.2136883147502837e-03
      2.1905188890377551e-03 -2.2405636753070474e-03
      4.7252504510459769e-03 -5.4575435523012177e-05
      -1.0576284678104736e-04 -3.4583136590282410e-03
      1.1361273059261410e-04 4.5201679874048717e-03
      1.7227433427067619e-03 -4.0713235474029563e-03
      8.0416575918973844e-04 5.4896889689228705e-04
      3.4326019645098951e-03 -1.4197378849431404e-03
      2.6884607839035013e-03 -1.7774508938468733e-03
      9.0751526949087841e-04 1.9582039632716304e-03
      -3.3150472023276449e-03 1.8464323888759035e-03
      -2.1348185312066708e-03 -3.0895898891952064e-03
      4.8041111851369273e-03 -3.6292216021471973e-03
      6.8080792221346224e-04 8.9066887133741330e-04
      -3.6740498121197096e-03 2.7128929556258438e-03
      -4.2419763253235144e-03 -3.2207284546816278e-03
      1.5408773114752243e-03 -4.9299818335038640e-03
      -1.2158560075287575e-03 -1.1509168325548194e-03
      -3.2153425487528695e-04 -1.1074207065200549e-03
      5.9971088926790068e-04 4.5420368123263036e-03
      -2.4622711137265987e-03 8.9720392144610795e-04
      -2.3059882311116586e-03 -2.4657302963679985e-03
      3.6548344004236409e-03 -3.2891512136359283e-04
      -3.5728889802302708e-03 -6.3637499238942215e-04
      3.1100933874820724e-03 -1.9725179454704506e-03
      -4.8683557480867336e-03 9.1441019684118880e-04
      -2.1473739826682512e-03 3.7341299707830925e-03
      -3.7997964018529260e-04 1.6885810417746167e-03
      3.6902090513998760e-03 4.8839854122924749e-03
      -8.9760235922619919e-04 -4.8714319585330575e-03
      4.7419642834586649e-03 -1.4714890720429633e-03
      -1.4255048320820092e-03 6.3344335699709505e-06
      4.0654639323878085e-03 -4.6885715456455365e-03
      3.2105046965554304e-03 -4.3026020408558482e-03
      1.2416908217931066e-03 -4.6010769076328308e-03
      -1.8375746312966862e-03 3.8402249803325731e-03
      -4.1199973459377749e-04 -2.4897170348361650e-03
      -2.7489142387803630e-03 3.9122869330044359e-03
      -4.0395748389355796e-04 3.3848579698006901e-03
      4.2495577956860736e-03 2.3546042776815402e-03
      2.8781864122011787e-04 -7.1590489648904159e-04
      1.3952926667188058e-03 2.1179383294540940e-03
      2.7562517933341904e-03 1.6160912269528390e-03
      3.8759188190920124e-03 -1.9091137066605591e-03
      -3.8904211007086530e-03 6.2018742637431597e-04
      -1.9765495937060884e-03 -2.7689263261385408e-03
      1.0978180173670249e-03 -1.3920161868723917e-03
      -7.4853466105115633e-04 -1.1598184606934009e-03
      -1.7067950004244362e-03 3.9036297324929344e-03
      3.7230944508757201e-03 4.7136413381678524e-03
      1.5406533740075245e-03 3.3595281487380363e-03
      -3.9628210749754174e-03 -3.2974073479484080e-03
      5.7764735304126932e-04 2.8169263660439620e-03
      -3.6549058999583686e-03 2.9549423240282603e-04
      -1.8619391890227551e-03 -2.2304131295496558e-03
      1.1119557190461008e-04 3.7503316730621863e-03
      -2.9691483329743413e-03 3.4079599588862346e-03
      2.8797551670180590e-03 2.2523105257880945e-03
      -2.7681202904539172e-03 2.3445391962691373e-03
      -2.9278435462030906e-04 2.0026042404610927e-03
      4.0444776675611707e-03 3.4659707548757258e-03
      -4.0276162454243054e-03 -4.5220479141396064e-03
      1.4812025065343297e-03 -3.0633245235396874e-03
      1.9942426892971864e-03 -2.9572949230312045e-03
      -3.6528790327534041e-03 -6.2332300933455218e-04
      -4.1340535439796247e-03 -2.4312414668301049e-04
      -3.0271798965380986e-03 3.2580619935529075e-03
      4.3187651063256362e-03 2.5595144809024638e-03
      -5.0315715728060477e-03 -3.1796142258634580e-03
      4.0492157894565567e-03 -4.0137874073047685e-03
      -3.8506409945748927e-03 -6.5790156172184885e-04
      -2.8004450901849705e-03 2.5611928194973618e-03
      2.2206360634478167e-03 4.2577484591939906e-03
      2.3388847200951218e-03 3.1044250968627137e-03
      2.0776386381019599e-03 8.4834386513237440e-05
      -2.4848141167783358e-03 1.5417414427096536e-03
      5.0813198456178014e-03 4.1466035402324642e-03
      2.4687210147531858e-03 6.1230035455411825e-04
      -3.4685300313584602e-04 -3.6420548700692511e-03
      -3.3623080689246620e-03 1.7419721978314177e-03
      2.5015077434831202e-03 1.6865712421177341e-03
      4.5513643937301147e-04 4.5297251040597123e-03
      2.2798457221873047e-03 9.2804266006933775e-04
      4.5301494392638100e-03 -4.1175123511660123e-03
      2.3659363335445105e-03 7.4923165549532745e-06
      -3.5162909615905260e-03 3.2467937718893749e-03
      3.3576395384542377e-03 -1.0655703282005441e-03
      1.6386975407628296e-03 -3.1919502846615460e-04
      4.2913037253252824e-05 -1.4234428694668614e-03
      2.0651769031514110e-03 2.7693278390457121e-03
      1.9240828801212004e-03 3.1640642474250924e-03
      2.0760605434799258e-03 -3.8839254038077497e-03
      1.2052762976024478e-03 -2.1997138735077569e-03
      2.7429317400689468e-03 8.8278871767972903e-04
      1.3087325499572373e-03 -9.6408381032222926e-04
      -1.5607825729148761e-03 -1.7144907814701390e-03
      -3.0738390567171156e-04 3.1494609283476652e-05
      -1.9469341720443159e-03 3.8320997164441751e-03
      4.8946848318398356e-03 1.1095315169660639e-03
      -1.4833912194454907e-05 4.7435021316608245e-04
      -3.7962488316034071e-04 2.6350347658831309e-03
      -3.8196432725415923e-03 8.1145859391896938e-04
      -4.5132446724152472e-03 3.1036055761909037e-03
      3.5069445713904785e-03 2.9142103333100436e-03
      -3.3722059187883614e-03 3.5112460485758825e-03
      -3.5699964124044025e-03 3.7232609832902343e-03
      -1.1245040991015790e-05 -4.4791387378144117e-03
      2.3918168494973515e-03 -4.1588669840979418e-03
      2.8896297745023380e-03 3.4807000024992158e-04
      -4.1075916696811082e-03 -1.1785971265527849e-03
      4.6811172836551656e-03 1.2267947246544671e-03
      -6.9018228087084233e-04 -3.5278531104452249e-04
      4.5415452479019855e-03 -4.6281256833717475e-03
      -5.5159945939018947e-04 -1.3364101194196984e-03
      8.7372954692714817e-04 2.8174000736232093e-04
      2.8822636321458976e-03 1.8591758229696340e-04
      -1.1484633419365157e-03 -3.6589780610318374e-03
      -3.1623849698240755e-03 -4.2192886872710923e-03
      -2.1307250135391056e-03 3.5960961860126515e-03
      -7.5557470025957424e-04 -2.0362178366237983e-03
      1.1997039285534198e-03 4.4412620576405439e-03
      -1.0679494912785035e-03 5.4820001966136359e-03
      1.2002064141335383e-03 4.2427042204541436e-03
      -1.9875479520207467e-04 -3.1259383439889345e-03
      4.4444528983599097e-03 2.9535309344197779e-03
      -1.4206213128440751e-04 -9.4500824753319653e-04
      -7.0343845984549135e-04 -3.8725565191865875e-03
      5.0429418560526571e-04 2.2480355253234360e-03
      2.7498602188144837e-03 -3.3065029590147650e-03
      -1.2643673794115785e-03 -3.7225973959422610e-03
      -1.6915660708336543e-03 1.2073222974219519e-03
      2.9860577719958746e-03 -1.9236355916263689e-03
      4.0612256527905967e-03 -4.6688655738070873e-03
      3.1564728903817514e-03 2.1592836055348984e-03
      -2.0261158616767137e-03 1.5614843648232841e-03
      2.7158316780870324e-03 -3.9746330267572717e-03
      -2.5981470246279038e-03 -3.6584635131646026e-03
      1.1968851514745187e-03 -4.7679116942723099e-04
      3.9590548078888062e-03 -3.7301903539579771e-03
      4.4240824775481193e-03 -2.9096114151867490e-03
      -1.7769547421372530e-03 3.0126836425078485e-03
      -5.0163749551167640e-03 -2.6883961003770708e-03
      -2.9386920586717703e-03 -2.3248679965703224e-03
      5.3766669969079783e-04 2.7430546520096043e-03
      -3.9461680277166821e-03 -2.2078643629867075e-03
      -2.5733951901200187e-03 2.4453145261675293e-03
      -3.6494900861493724e-03 -4.8385367727994729e-03
      -3.7568498721338110e-03 2.1479987146516880e-03
      1.7882294370019354e-04 9.5220496788864250e-04
      -2.7968922527089996e-03 -4.9982990533964352e-03
      -4.5702346637535802e-03 -6.3506639457518404e-04
      4.5780983144785101e-03 -4.2263108184461993e-03
      3.1383195893662665e-04 -3.3212835821681531e-03
      4.0264113796092283e-03 -4.3833574542594895e-03
      9.7297181933583853e-04 -2.5432514280903568e-03
      -7.1145105820497718e-04 5.8236835872566505e-04
      3.8126204826281116e-03 -2.3559926308085550e-03
      2.9029718018761430e-03 -2.5117632562167828e-03
      1.2906146774862854e-03 3.0688018473402985e-03
      3.7066456753705347e-04 4.9212605286269410e-03
      1.6651549711190652e-03 4.8309788025090112e-03
      -2.8734354433133619e-03 -4.4808449076343083e-03
      -3.9399621403999160e-04 4.4361159455554161e-03
      1.2149547928989193e-03 -1.4910731976256525e-03
      -3.7468279198035886e-03 -2.9315748238068111e-03
      3.4598404622657872e-05 -3.9436310869165030e-03
      2.6111726877991728e-03 -3.5504429097727683e-04
      3.7629144399659192e-03 -1.7368623571494186e-03
      -3.5568006927283128e-03 -4.4646537528738126e-03
      4.4916329813997910e-03 -1.7446583625605899e-03
      2.4751443568414942e-03 -4.7082287146950922e-03
      -6.9008143050005189e-04 -2.4177599296010843e-03
      4.7615362135915293e-03 2.5825138760626680e-03
      -1.6048528209942052e-04 1.2796106972013247e-03
      6.0099837922348231e-04 4.8574905801798823e-03
      1.9626326280778395e-03 1.6016068069218414e-03
      3.2230933481407335e-03 -4.7005278148919069e-03
      -4.1325555516925376e-03 -4.4075575320322320e-03
      7.6288903664453657e-04 8.0610548610831364e-04
      -1.9022775726161233e-03 -9.3102839893160203e-04
      1.9397039994099219e-03 -2.7725938782834506e-03
      2.1630599625247146e-03 4.4881027274504322e-03
      -4.3094179878984195e-04 4.3360360297632862e-03
      2.4854688224129813e-03 -4.5419091009404810e-03
      -3.2645209645759321e-03 3.2261538508399909e-04
      3.4868285474956729e-03 -1.3881053750413680e-04
      3.4102597088631137e-03 2.6354005253277852e-03
      1.0545618306662811e-03 -4.9586132282020811e-03
      -1.8613387326642998e-03 4.3357589552348429e-03
      -3.7048698818843359e-04 4.3119956835299834e-03
      -2.3595116639318200e-03 1.2033011696300890e-03
      -3.7111999024025438e-03 -4.0835182531910172e-03
      -2.7514537092596654e-03 -1.2434552287626062e-03
      1.0144725263666594e-03 -2.7453386088375896e-04
      1.3477753783855081e-03 -4.6305206859041633e-03
      -1.1804233030362160e-03 -2.2648765743949360e-03
      1.5792353088976425e-03 -2.9805421973548452e-03
      1.3114961047496973e-03 9.1804923463976204e-04
      3.9140941386412902e-03 -3.9001434696700589e-03
      -9.9452880616514002e-04 9.6124420596158285e-04
      4.5257063555675528e-03 -1.4087882005385157e-03
      3.5568275038642407e-06 3.6501044116567030e-03
      -3.3306055695373057e-04 3.9822887944782042e-03
      1.4391332416268648e-03 8.2357503808250959e-04
      3.1680928654175470e-03 -3.5662473483526916e-03
      -3.3822030571800691e-03 -2.1188234737126162e-03
      1.1499983843605501e-03 8.2018367588309921e-04
      -2.4081346301581350e-03 2.3274562540497282e-03
      -4.3302510375728747e-03 -2.3335512076261404e-03
      3.1480594675352018e-04 2.2298324444760257e-04
      -2.8547765384156435e-03 -4.9506517630000411e-03
      2.0397148773999021e-03 2.6995005878525332e-03
      -3.0036760575452505e-03 4.2563892233374008e-04
      -1.4818635714530489e-04 6.2526152833968450e-04
      -4.7972549119858574e-03 -1.4732929309724709e-03
      -3.8867446734852612e-03 1.6158868005758150e-03
      -2.1022927471628103e-03 8.7058962063532054e-04
      6.2932835815376073e-04 -2.8648360691390126e-03
      4.8673211563764879e-04 -2.1636562547402986e-03
      -1.0247747392771167e-03 3.4372889772193581e-03
      2.6485473326849862e-04 4.8877495667687728e-03
      2.5301077874818616e-03 -6.1445362766044819e-04
      4.3307536904471887e-03 7.9635308181734844e-04
      5.3964802672032311e-04 -1.8079818782194260e-03
      -2.9885691766870660e-03 -1.3314998902505090e-03
      1.1950675756435089e-03 -3.5375128218462391e-03
      3.4423596197415737e-04 -3.6511695184104657e-03
      2.8720435639459536e-03 1.6482254497244817e-03
      -4.5184263034930838e-03 -8.2363204418834450e-05
      -3.3066077293791439e-03 -3.2334452001076447e-04
      4.9379783302085055e-03 4.1280787516710712e-03
      4.5880205627035868e-03 4.7804230518527675e-03
      -4.5612359957519239e-03 4.2995383110767975e-03
      -9.9307517891793532e-04 -3.2800491838780471e-03
      -4.1426448476787085e-03 4.6519411682846025e-04
      3.0014230152820040e-03 9.1212954088788930e-04
      -3.3046712311215524e-03 -3.7426463969123668e-03
      1.7845810509205641e-03 -1.7875272493219148e-03
      -4.6392023259564817e-03 3.6377374504048278e-03
      -2.0686786588335801e-03 9.4337693964079277e-05
      3.4746598600450627e-03 3.0532271029489891e-03
      3.1351187841083782e-03 -4.8363142354712957e-03
      2.5255408380092347e-03 2.3038772011633791e-03
      2.2937374249137254e-03 3.1551477101963666e-03
      3.3245439653394365e-03 -3.4352802583743625e-03
      -4.2180219712169946e-03 -1.2814240103326425e-03
      2.9202726701062932e-03 1.3673886563167275e-03
      3.1205681025634033e-03 -5.0434245098135390e-03
      -9.8971521241643531e-04 1.5378380686707493e-03
      1.1496835280824326e-04 -3.5006902322801243e-03
      -2.1614192843208332e-04 -1.5171422879822491e-03
      4.8219648210023596e-03 -1.6219545952963000e-03
      -1.9908330773810348e-03 3.2484466161056022e-03
      -2.6925814147567232e-03 -2.3807427778967621e-03
      -2.5873110978053724e-03 -4.8484541656491154e-03
      4.4650827123987498e-03 3.2912492590545057e-03
      2.1293716148283910e-03 4.2339157717980625e-03
      -2.8187337506036430e-03 2.3586642503752044e-03
      1.3236688108366347e-03 -2.6957794511983592e-03
      -1.5474013912247571e-03 -2.2995929390969023e-03
      -3.7927083137205462e-03 -2.9002005095393850e-03
      3.8290143188749945e-03 2.7093217910087535e-03
      -4.6636994381298652e-03 -5.7147534012865994e-04
      3.8150267067444026e-03 -4.0613939136299442e-03
      1.4996908956335742e-03 3.8769772426453537e-03
      -4.9978104784427326e-03 -3.3365208622183284e-03
      1.4414445122970117e-03 4.2899712227127797e-03
      2.3370609826495653e-04 -2.5983085390745447e-04
      2.7332515282892083e-03 3.0451579609361832e-03
      1.1204129508258319e-04 -2.1171167213054445e-04
      -4.1502075074827238e-05 1.7423936802147657e-03
      -3.8308215688045428e-03 4.1476683285146011e-03
      -3.4088308271434950e-03 1.5006124867594135e-03
      -4.6711962514995944e-03 -1.6976310934759904e-03
      1.7015307871079991e-03 2.6381919813356735e-03
      -1.0360624422216880e-03 -1.0464390764116714e-03
      -5.0945320322543855e-03 2.0271533447708623e-04
      -2.2409841790414571e-03 -2.3302960575548254e-03
      -4.0474248572151409e-03 -2.0788712409186600e-03
      4.3060783578231206e-03 3.5255533263474411e-03
      -4.6292028169992831e-03 -4.2542684890665219e-03
      -8.6784092484434817e-04 -7.9626796465285176e-04
      1.4412949687201077e-03 -2.5288055660672450e-03
      -3.3194371346699572e-03 2.7780722763338147e-03
      -3.7035223072897938e-03 -4.2034104067982404e-03
      4.9727956004222353e-04 4.6760708182638465e-03
      -2.5665552407094423e-03 -1.7894822399124898e-03
      6.7146804551065562e-04 -1.8979754335809529e-03
      -3.0972495097812518e-03 -2.8041646570298546e-03
      -4.6785287294473862e-04 -8.5664056400569641e-04
      -3.9336982856146962e-03 4.9475034675403725e-03
      5.5636881672718893e-04 -2.7129104364307711e-03
      2.4147712171529241e-03 -3.0802935860005320e-03
      -3.1700842913002327e-03 -2.1498187059049668e-03
      1.1433816250164279e-03 -3.9301685577938445e-03
      8.3308919467562856e-04 -1.2476512959604888e-03
      3.1027715413108710e-03 -1.6696538914317905e-03
      3.6594867571625245e-03 1.7365183522242895e-03
      1.3360606648520423e-04 9.5546102258324905e-05
      -9.5239985936403885e-04 6.3328149697176319e-04
      4.2286080091367001e-03 4.7497061217501883e-03
      -1.9020390795407955e-03 8.1017960137587082e-04
      -2.7717750163115608e-03 2.0680367820858489e-03
      2.7958687784131516e-03 -8.6173467040544086e-04
      2.7556169349149100e-03 -2.9743944557596483e-03
      2.7193137665153045e-03 2.5481578728353323e-03
      2.2435906538357457e-03 1.2443289250324782e-03
      2.1391134406551775e-03 -3.3195261227786420e-03
      -4.0562076226765189e-03 -4.5661267212272925e-03
      -2.1183895621197167e-03 3.1739811683265755e-03
      -3.6963316365232488e-03 -1.2286959522157972e-03
      3.1439287855443035e-03 5.9421771758520433e-04
      4.5033214790129632e-03 2.1416668510615021e-03
      -1.5161501866095383e-03 4.6487779672356499e-03
      2.7884525167298844e-03 -3.9112705083118740e-03
      2.0054777910218182e-03 1.2712188437901816e-03
      -2.5968053712624446e-03 3.2629378388884006e-03
      1.1869230198329110e-03 1.0563248607642270e-04
      4.5933842049370906e-03 -2.8003545827872214e-04
      1.0679720498082401e-03 4.3707019972466475e-03
      8.0688955245414968e-04 3.3768090114482340e-03
      1.0832314421029342e-03 -6.7834110670736609e-04
      9.6696149961589788e-05 2.6463609829074169e-03
      2.4739896991351159e-03 4.2038789210938083e-03
      3.2314641771497227e-03 -4.0467245660182052e-03
      1.3480251644258908e-04 2.7539461715685122e-03
      2.5660556035198563e-03 -4.3138954480010146e-03
      -1.3576025208456312e-03 -2.7200495627641851e-03
      -8.0642476121524365e-04 -5.8451808296643409e-04
      3.9542446298015314e-06 3.9448459338893892e-03
      -2.5764546295585669e-03 5.2245440990529482e-04
      -1.5716600276423180e-03 4.3307698564403621e-03
      -3.5016394539360233e-03 -6.2840891539678626e-04
      -4.5504022136467143e-03 3.3673746045236623e-03
      -4.4832958231217660e-03 -2.7774603682243640e-03
      -3.1403622404225333e-03 -3.9841432407588685e-03
      -2.5831350518199579e-03 -5.3847599446118642e-04
      -2.2798866598449474e-03 1.5725962282026541e-03
      -2.4649847124462408e-03 -3.3480717907793645e-03
      2.8973244081065843e-03 4.5188565806842237e-03
      -1.8182245751963402e-03 -2.8576763914523844e-03
      -1.6139016085264550e-03 -3.3688700422081848e-03
      1.9918617746862025e-03 9.2810587554388840e-04
      -3.6648004940218258e-03 2.9990523591980440e-03
      -3.9703710531116976e-03 3.1653071584000106e-03
      4.4616728390652781e-03 4.1898000223934201e-03
      -4.6748275274790868e-03 -3.3295229315042897e-04
      -1.7607623686087272e-03 3.8595164073939796e-03
      -3.9699658042651352e-03 -2.4061874510806032e-03
      4.0289589917295822e-03 -4.0233343282499003e-03
      3.5577421657787284e-03 3.1890842264380211e-03
      -1.4862321329199288e-03 -7.4483701696101943e-04
      4.5897429095107878e-03 -3.8098923998206567e-03
      -1.4528852082513130e-03 2.6933135553477826e-03
      -2.6812026625819838e-03 1.0428246013408787e-03
      -3.4165422463815266e-03 -1.0512248422476784e-03
      9.3442256249808150e-04 -5.1256011455706593e-03
      3.1171671413581939e-03 4.6689684941006691e-03
      -2.8369103693555594e-03 -2.6750949693970481e-03
      1.0567677855970795e-03 -4.0889852143135961e-04
      -2.7781821288760358e-03 3.8353851437582746e-03
      2.1118526256150728e-04 4.7246943313445731e-03
      -2.0848763145882559e-03 3.2746599838470061e-03
      7.8262058345763001e-04 1.2966203844243787e-03
      -1.8021401929433410e-03 1.0090210647259745e-03
      -2.8367432320682610e-03 1.6621979737658451e-03
      3.1499804260867051e-03 -2.6929783700853568e-03
      3.9818941218647055e-03 1.1374291231647728e-03
      3.5343457455798291e-03 -3.1464928639912239e-03
      -2.2017980539143669e-03 1.7485966526443926e-03
      -5.9557516242140574e-04 -6.2559054422363272e-04
      2.8545901753534281e-03 -2.0663754150429163e-03
      -3.8776022859945175e-03 -6.8610154306935592e-04
      4.6546279797287709e-03 -4.9765338544007750e-03
      -1.6711131951773642e-03 -1.8438003307521475e-03
      -2.2209705172225617e-03 -4.5395304474810808e-03
      4.5335177713340738e-03 -1.1274427059609150e-04
      1.4996512466469221e-03 1.0578770824556062e-03
      -1.7101944844534265e-03 -3.4733203682535442e-03
      -4.9449361348366614e-04 2.0010765603588328e-03
      7.3999627457869543e-04 1.0170977448680169e-04
      3.9833042810651859e-03 2.3521118627854369e-03
      -2.7959293087691500e-03 3.3089538029036961e-04
      1.9778575025488645e-03 -2.8563795401870136e-03
      2.6502144119145901e-04 4.5280330432293341e-03
      2.9313160910612976e-03 1.5008873573478397e-03
      4.5095871433526820e-03 4.2697233176007630e-04
      2.1491329574591838e-03 -1.3625721656780534e-03
      1.9140375880593877e-04 -4.7666318460926329e-03
      3.1370166247329506e-03 5.8536561425855940e-04
      -1.0320301823550681e-03 1.7247441573559710e-03
      -1.6719046833430968e-03 1.4351730210437005e-03
      3.0074921838289721e-03 -4.9254511672246620e-03
      -4.6856979927149883e-03 4.4107946418318854e-03
      8.6867003613313532e-04 1.3093750061736436e-03
      2.8675121381048318e-03 4.9017301057814062e-03
      -2.6405296818074009e-03 1.5569795757504705e-03
      -1.4031915600266570e-03 -4.4001167502123193e-03
      3.1885957455819384e-03 -5.0343062256988699e-03
      -2.8680119333714662e-03 4.9269777803297174e-03
      1.9404265404564663e-03 5.8840075598117351e-05
      2.0467381281513712e-03 -2.9702208466153793e-03
      -3.3133769168652602e-03 -2.2706980117332500e-03
      1.9873051407343564e-03 4.3826026128821931e-03
      -5.2570940915021864e-03 -4.9226225216873086e-03
      2.9615707661703535e-03 -3.6566049012702073e-03
      -3.8381947121387955e-03 -4.3082594832599226e-03
      -2.0085836418033314e-03 3.3117392954124416e-03
      2.5726911805359983e-03 -9.9232909144787501e-04
      -1.6845079055268421e-03 -2.2486929463474848e-03
      -2.5753993392517538e-03 -7.0776177382412154e-04
      2.5531891817662847e-03 1.3835387293439705e-03
      -2.0548376103024378e-03 3.8743655021013213e-03
      4.2927526770956638e-03 -1.0243705840712489e-04
      1.9339359582225076e-04 2.7032877789116574e-03
      -3.3181537586679574e-03 4.1101215804016898e-03
      1.0757620488475847e-03 5.0722138762928090e-03
      -2.4631560311101932e-03 -1.7110161415914176e-04
      -9.0656155775658740e-04 3.5081212521652699e-03
      3.6025568721670675e-03 -1.4154349722641439e-03
      1.6128035104190259e-03 3.6954928003364688e-03
      -2.7391620754174624e-04 -2.0615487018678454e-03
      2.5377756049572253e-03 1.0515279420751291e-03
      1.8112568944660824e-03 2.9903900202392212e-03
      4.7993695737544488e-03 1.8162745666620121e-03
      2.1481856356006068e-03 1.4752031345985114e-04
      4.1869936778308383e-03 -1.1122057735866474e-03
      4.8831338205993058e-05 -3.4663268878279887e-03
      3.6647435496097876e-03 2.7424481647979225e-03
      -2.8380683550843591e-03 1.0516184029388087e-03
      -4.8274977231455678e-03 -3.0481025770485977e-03
      -4.0625499580775118e-03 3.2017032073234772e-03
      -1.2635749225945298e-03 -4.0215276773469819e-03
      -4.3542063732665238e-03 -2.3662381711187482e-03
      2.1347350543792503e-03 -4.3834308789135268e-03
      -3.2583161404024568e-03 3.5412068416806873e-03
      -9.6775507642126737e-04 4.9428002779738269e-03
      9.1794667130653195e-04 -8.7169289137688320e-04
      2.3154975488634145e-03 5.4641979013014667e-04
      -3.4702031965517174e-03 1.6565711916897356e-03
      -2.2202957704673598e-03 -2.1213747047068060e-03
      -2.1576994968875059e-03 -7.7119390952364671e-04
      -2.5154460049588525e-03 -2.0512665336580764e-03
      -5.0736268050129369e-04 3.5855211091083347e-03
      2.4286205392187008e-03 -1.3657200311043677e-03
      1.5053220664800599e-03 -2.1621588517254683e-03
      4.4656185148714200e-03 1.8272122312022639e-03
      -4.1265114774334755e-04 -1.1249406428004653e-03
      -2.6692796983139168e-03 2.5209443317363842e-03
      2.0519032856988833e-03 5.2751534041086052e-04
      -2.6233394574823846e-03 -2.8530126425293789e-03
      4.6732043582804290e-03 -1.4095998295947851e-03
      9.3721172721574733e-04 2.1379596209040335e-03
      2.5045833952105872e-03 -2.0629406095907022e-03
      1.1172506405604772e-03 -1.8660799137321627e-03
      -1.3546648079301666e-03 -3.9267740035727992e-03
      2.2704233616067564e-03 -9.7890851732860152e-04
      2.5029254924114710e-03 -2.2407202330854575e-03
      -1.7672987423852451e-03 2.9863648166506204e-03
      -4.5843135758546379e-03 1.9157573048573043e-03
      -1.8272669121326044e-03 3.6825223514908014e-03
      -1.3568961994608771e-03 1.5557721750246018e-03
      2.8957750793014536e-03 -3.4878704038796061e-03
      1.8633863810561722e-03 -2.7872150595360736e-03
      3.4411651939743907e-03 -2.0423341770106612e-03
      1.5044960996644142e-03 -5.1015793606103386e-03
      -4.5913267852943701e-03 -1.2961615598406351e-03
      1.8726915901001097e-03 -3.9520948299598827e-03
      2.8242700683187520e-03 3.1299629685476570e-03
      -3.0296866644981988e-03 4.5783009933838973e-03
      1.6687647266437425e-03 -3.5618372575787478e-03
      -5.7883600588333299e-04 -2.1665587019689316e-03
      -3.0747777705482935e-03 6.8750635105793180e-04
      4.6715044377309695e-03 3.6588993447744414e-03
      -4.8910918862792229e-03 3.4523804531704514e-03
      -3.1420014166799748e-04 3.0449467023320716e-03
      -5.9672884371218381e-04 -4.5397707870133471e-03
      2.7032714736442516e-03 1.9878899606679151e-03
      7.8838889046440585e-05 4.7048331138790722e-03
      4.7465200643250771e-03 -5.0419145552483878e-03
      2.7667800116864061e-03 -4.7811444860148259e-04
      3.0629074442352516e-03 1.2649076829909301e-03
      -1.6727858814784128e-03 -3.7511353405973798e-03
      3.9149354683675232e-03 -5.1398552738700636e-04
      -2.0384575609971776e-03 -2.5438327874487713e-03
      1.4752427643745039e-03 2.3961084519953573e-04
      2.6297998751652852e-03 2.1792285221655071e-03
      -1.5232318974035511e-03 -8.9824612524214153e-04
      -4.1242487083244734e-03 4.2951037600228803e-03
      4.4970849627539028e-03 -4.2334772779497399e-03
      -4.6174703346697757e-03 1.1148166033372584e-03
      -6.5397552356064110e-05 -4.6089615151920601e-04
      1.6429519350730877e-03 7.6203183830048495e-04
      -4.2536711808079603e-03 -4.4797290023256193e-04
      1.9465983793042496e-03 -1.8925572857302882e-03
      4.7406887297742738e-03 2.4003383068376422e-03
      -3.4446582849948322e-03 1.4753510560753733e-03
      8.4517288331803031e-04 3.1896377455010701e-03
      1.8566893671380120e-03 5.5200652011282256e-04
      9.0592224742302085e-04 -2.2123144868849620e-03
      -2.4977095219615693e-03 -4.3093553176258353e-03
      2.8541855916927581e-03 1.5956732264749342e-03
      2.2335775276254638e-03 1.1131165179875572e-04
      -8.0418442353537523e-05 -9.9412497074028447e-04
      -3.2289106644735983e-04 -4.2151344371347448e-03
      3.6734077073951026e-03 4.6468156313801664e-03
      2.2938898090401629e-03 -3.2391668974187542e-03
      4.3321069503836178e-03 -2.7308819040345995e-03
      -3.0191821478329616e-03 -9.9665557263762020e-04
      3.1511748780101534e-03 -4.4993840381309198e-03
      4.8042332489582071e-03 -1.0217526911726145e-03
      -2.1430337094797379e-03 -2.7026833629703560e-03
      -2.5060638168618457e-03 4.0940868408948583e-03
      -3.3873750013427984e-04 -4.4909784750492834e-03
      3.8253196477351387e-03 -7.4798808165622399e-04
      -6.2280457042629075e-04 -1.6699326516502592e-03
      -2.8685868308897786e-03 -2.7789050607223793e-03
      5.8909600250803317e-04 -1.8293393920794230e-04
      2.8335299123019549e-03 -3.6652825032595536e-03
      -2.4535549629446612e-03 3.8217803871175835e-03
      2.7788621118280854e-03 -4.0394283379792655e-03
      3.1952210766950017e-03 3.3788518522701485e-03
      2.0343383486360229e-03 -3.8967896574281873e-03
      -1.2111259289846435e-03 -2.7578435714102480e-03
      -3.4320342165200009e-04 -3.5122123907250767e-03
      1.8656435644461974e-03 -1.1883433580862760e-03
      3.2669564865946722e-03 3.2606867000155907e-03
      7.6616145248311506e-05 9.7870797399894865e-04
      1.6513288803219519e-03 -3.0856243025719274e-04
      8.3967273491499796e-04 -1.2081127994817621e-04
      1.4946972705438594e-03 3.5267859516143495e-03
      2.1979261977514652e-03 -2.7488134336818479e-03
      -1.9925741499171529e-03 -2.0633276591634285e-03
      -1.4359639168052651e-03 1.0433925077798520e-03
      3.2946026150856055e-03 3.3847136318871452e-03
      1.8945860135321272e-03 -3.2863354148585664e-03
      2.5747904694857938e-04 -4.9773438858857662e-03
      2.7513385985272389e-03 -7.1032228156023389e-04
      8.2858901021329518e-04 -4.9567976700477601e-03
      -3.7025947344743789e-03 -4.6862842314325274e-03
      -1.4469226492215285e-04 -2.5489656330680548e-03
      -4.0153774119954626e-03 -2.4982551576814007e-04
      9.1760541606648947e-04 -4.5611392357231299e-03
      -8.8720167399846100e-04 3.2260451740528289e-03
      1.0266586206108478e-03 2.4902104834501775e-03
      -4.3856649233010806e-03 -4.1010646798426741e-03
      -4.6429607217828702e-03 4.1906584431318852e-03
      8.8723363529359493e-04 1.0138714003546801e-03
      4.3183511722766268e-03 3.8982507417749724e-03
      2.6581290154192886e-03 -2.1973032679517847e-03
      9.6923314214804345e-04 2.9842348609783869e-05
      -4.0105755781932621e-03 -3.9588693285898787e-03
      -9.8864202280685067e-04 9.3588162920434223e-04
      -1.0609746623639854e-05 -2.4363776884484597e-03
      -4.3546837582090440e-03 -1.2268174444959004e-03
      2.4076170254276339e-03 -2.6526954507182423e-03
      8.4917984536215087e-05 2.7670306418731186e-03
      2.2356292560920302e-03 4.5220755500873346e-03
      7.2710172227452238e-04 7.8804157289974182e-04
      -8.5677820989793713e-04 1.7152784831942348e-03
      8.2098114161941295e-04 -3.2989183409514737e-03
      2.0973407661524883e-03 2.4365998706454080e-03
      6.7653493205853746e-05 3.8691833445567351e-03
      -2.3680544694525767e-03 -5.6035480597395315e-04
      1.4312025937404612e-03 -1.2284102051770900e-03
      -2.2648349648554823e-03 -1.2620885198099735e-03
      1.0658883038247833e-03 1.4290969355284177e-03
      -3.5091961479486299e-03 -4.9998812471037258e-03
      4.2190307049060185e-03 3.7458287178881956e-03
      -1.6964472081797332e-03 4.0875895563196587e-03
      -3.8432703541619985e-03 -1.2004742294890445e-03
      1.8198418713438950e-03 -8.2778968052257991e-04
      -4.0321618173798646e-03 6.8419972317131680e-04
      -1.4578467798446711e-03 -2.1036154813234521e-03
      -9.3131551247775169e-04 -3.2431555363240188e-03
      -2.7072857897725965e-03 3.7260458153462513e-03
      3.8924020894376800e-04 3.9748148046363950e-03
      1.2965807746936212e-03 -3.5461176618632006e-03
      -3.0613481887813388e-03 -3.9870911661006262e-03
      7.9429772029176841e-04 4.7446046327855838e-03
      -3.0245506588472510e-03 2.1685907255180764e-03
      2.9364232956453520e-03 3.1827817724868765e-03
      1.9856039449299215e-03 4.5799919226582626e-03
      -3.7239294434298939e-03 4.3226759667615959e-03
      -2.7678455356199053e-03 2.4902907320625205e-03
      1.2396037842022291e-03 4.2581385933007591e-03
      -2.7922720921054450e-03 -4.2328785114932790e-03
      1.1590455603323511e-03 -4.6834401557119447e-03
      3.4408577659763512e-03 -7.6682213408481206e-04
      -1.0761488008432588e-03 3.3635446195493988e-03
      -1.5622694840408986e-04 -4.5065667470490182e-03
      3.0519623531891013e-03 -4.3721807887300472e-03
      2.4485167616141656e-05 3.3382841125694641e-03
      -5.9015124382020721e-04 2.6411683665047456e-03
      2.1203041204007661e-03 1.0416244058204667e-03
      -1.2618875711983352e-04 -3.0105925402238744e-04
      4.9589294444058341e-03 1.4972606998117117e-03
      -3.8268741037437584e-03 -9.6902095306426121e-04
      -4.1346181776427283e-03 3.0546536520525205e-03
      3.7537913147194860e-03 6.1885596771701944e-04
      2.2847702357960283e-03 1.6132130673269577e-03
      -4.7598478637807494e-03 2.0898309984043345e-03
      -3.1123195115380690e-03 3.1600236046728167e-03
      -1.8337623272971131e-03 2.4994016390414930e-03
      -2.6833589861115031e-03 1.5483126784599283e-03
      -1.0428817064233838e-03 -2.2519554065730234e-03
      2.4672145792823297e-03 4.2945482921104587e-03
      3.3137618189300970e-03 2.1444804575227192e-03
      2.2479941452313492e-03 -3.3313246153002063e-03
      4.5637771656273658e-03 -4.6312344760820164e-03
      -1.6775227519960699e-03 1.3500158338898896e-03
      3.7601529401225867e-03 4.1161470402389308e-03
      6.6439015180410938e-04 3.2623110779791400e-03
      4.5256975279228551e-03 3.4988423701516275e-03
      -4.3537726168762494e-03 -4.1935910369141106e-03
      1.0657232764428549e-03 9.1533223421992810e-04
      -4.1978871751299697e-04 -5.3406584684569211e-04
      4.0156022409020900e-03 2.5457953067649685e-03
      -1.2381630778612587e-03 2.7750990441582977e-04
      2.5065271577367466e-03 -1.4139206003273156e-03
      -3.6332721928468161e-03 2.6403560835855265e-03
      1.4575279425297876e-03 -1.8531529743425882e-03
      -6.4610465854658108e-04 3.3750132715417813e-03
      -9.4303623709783197e-05 1.0262992098455210e-03
      -4.4435596518808780e-03 -3.6567602374041755e-03
      -5.5301269447442813e-04 -1.4266791490696801e-03
      -2.1797398918775393e-03 -4.5579261574342483e-03
      -1.6184687749953141e-03 -3.9520826029927191e-03
      4.6890299717114109e-03 3.6168782877961784e-03
      -4.7245634436804510e-05 1.0107496074596969e-03
      3.9440166737324594e-03 -3.4833384398422120e-03
      3.4359753942692539e-03 -2.5263628459529122e-03
      2.0456544651514770e-04 2.4506129779441580e-03
      2.2314833256063980e-03 -1.1224115127851245e-03
      4.6135341837550093e-03 2.0556021246036830e-03
      4.4810486856583223e-03 -1.5784210059616114e-03
      -3.5950675780642614e-03 4.2800829456935046e-03
      -3.0393815921651609e-03 -4.5034374523943007e-03
      9.3308342523480426e-05 -2.4086769075173852e-03
      -3.1484334637540633e-03 1.7039129601197568e-03
      4.7698971551109245e-03 3.4722170256302749e-03
      4.5058877492485721e-03 -2.0968244724546502e-03
      3.1070129905333239e-03 -1.6509822698297294e-03
      3.2981165601714052e-04 3.5770029592011483e-03
      -8.1811850730352975e-04 3.8487703467925388e-03
      3.6879824016075886e-03 7.4706546476963043e-04
      -4.8135073078177824e-03 -4.4108015466411184e-03
      -3.7188602447166941e-04 3.9739609496925257e-04
      4.3069759146973745e-03 1.1538067298532244e-04
      4.9043664481381814e-03 1.1446200511442005e-03
      -2.3766085805268801e-03 -2.5257799401549228e-03
      -3.4282947652311199e-04 2.0402386570491137e-03
      5.0228703891148545e-03 4.2436391395456394e-03
      3.6177191841858564e-03 2.3071485164572049e-03
      2.3853504250592244e-03 2.9803061122179626e-03
      -2.0919371502447852e-03 -1.9024284766969556e-04
      3.3940843847883781e-03 4.4692425781838680e-03
